digraph Tree {
node [shape=box, style="filled, rounded", color="black", fontname=helvetica] ;
edge [fontname=helvetica] ;
0 [label=<soy sauce &le; 0.5<br/>gini = 0.766<br/>samples = 24272<br/>value = [1, 2672, 3003, 7838, 6438, 4320]>, fillcolor="#eff7fd"] ;
1 [label=<cumin &le; 0.5<br/>gini = 0.748<br/>samples = 22811<br/>value = [1, 1309, 2983, 7823, 6396, 4299]>, fillcolor="#eef6fd"] ;
0 -> 1 [labeldistance=2.5, labelangle=45, headlabel="True"] ;
2 [label=<olive oil &le; 0.5<br/>gini = 0.736<br/>samples = 19928<br/>value = [1, 1304, 2137, 7790, 4459, 4237]>, fillcolor="#d4eaf9"] ;
1 -> 2 ;
3 [label=<extra-virgin olive oil &le; 0.5<br/>gini = 0.765<br/>samples = 15561<br/>value = [1, 1245, 1909, 4698, 3768, 3940]>, fillcolor="#f2f9fd"] ;
2 -> 3 ;
4 [label=<grated parmesan cheese &le; 0.5<br/>gini = 0.772<br/>samples = 14030<br/>value = [1, 1238, 1874, 3414, 3653, 3850]>, fillcolor="#fffbfd"] ;
3 -> 4 ;
5 [label=<cumin seed &le; 0.5<br/>gini = 0.772<br/>samples = 13237<br/>value = [1, 1236, 1874, 2708, 3636, 3782]>, fillcolor="#fffcfe"] ;
4 -> 5 ;
6 [label=<buttermilk &le; 0.5<br/>gini = 0.764<br/>samples = 12621<br/>value = [1, 1231, 1339, 2708, 3570, 3772]>, fillcolor="#fefbfd"] ;
5 -> 6 ;
7 [label=<salsa &le; 0.5<br/>gini = 0.768<br/>samples = 11981<br/>value = [1, 1230, 1330, 2686, 3558, 3176]>, fillcolor="#faf6fe"] ;
6 -> 7 ;
8 [label=<sesame oil &le; 0.5<br/>gini = 0.773<br/>samples = 11445<br/>value = [1, 1229, 1328, 2679, 3035, 3173]>, fillcolor="#fffcfd"] ;
7 -> 8 ;
9 [label=<avocado &le; 0.5<br/>gini = 0.766<br/>samples = 11134<br/>value = [1, 928, 1321, 2679, 3033, 3172]>, fillcolor="#fffcfd"] ;
8 -> 9 ;
10 [label=<garam masala &le; 0.5<br/>gini = 0.768<br/>samples = 10683<br/>value = [1, 924, 1320, 2670, 2606, 3162]>, fillcolor="#fdf3f9"] ;
9 -> 10 ;
11 [label=<corn tortillas &le; 0.5<br/>gini = 0.762<br/>samples = 10417<br/>value = [1, 923, 1057, 2670, 2606, 3160]>, fillcolor="#fdf2f9"] ;
10 -> 11 ;
12 [label=<flour tortillas &le; 0.5<br/>gini = 0.762<br/>samples = 10104<br/>value = [1, 923, 1057, 2670, 2294, 3159]>, fillcolor="#fdf2f9"] ;
11 -> 12 ;
13 [label=<butter &le; 0.5<br/>gini = 0.76<br/>samples = 9800<br/>value = [1, 920, 1057, 2664, 2000, 3158]>, fillcolor="#fdf1f8"] ;
12 -> 13 ;
14 [label=<jalapeno chilies &le; 0.5<br/>gini = 0.774<br/>samples = 8146<br/>value = [1, 898, 967, 2234, 1859, 2187]>, fillcolor="#fdfeff"] ;
13 -> 14 ;
15 [label=<gini = 0.773<br/>samples = 7751<br/>value = [1, 890, 943, 2230, 1552, 2135]>, fillcolor="#fcfdff"] ;
14 -> 15 ;
16 [label=<gini = 0.374<br/>samples = 395<br/>value = [0, 8, 24, 4, 307, 52]>, fillcolor="#a16cec"] ;
14 -> 16 ;
17 [label=<curry &le; 0.5<br/>gini = 0.577<br/>samples = 1654<br/>value = [0, 22, 90, 430, 141, 971]>, fillcolor="#f4a7d4"] ;
13 -> 17 ;
18 [label=<gini = 0.565<br/>samples = 1623<br/>value = [0, 22, 62, 430, 141, 968]>, fillcolor="#f3a6d3"] ;
17 -> 18 ;
19 [label=<gini = 0.175<br/>samples = 31<br/>value = [0, 0, 28, 0, 0, 3]>, fillcolor="#4ee88e"] ;
17 -> 19 ;
20 [label=<low sodium soy sauce &le; 0.5<br/>gini = 0.064<br/>samples = 304<br/>value = [0, 3, 0, 6, 294, 1]>, fillcolor="#8540e6"] ;
12 -> 20 ;
21 [label=<pepperoni &le; 0.5<br/>gini = 0.046<br/>samples = 301<br/>value = [0, 0, 0, 6, 294, 1]>, fillcolor="#843ee6"] ;
20 -> 21 ;
22 [label=<gini = 0.033<br/>samples = 299<br/>value = [0, 0, 0, 4, 294, 1]>, fillcolor="#833ce5"] ;
21 -> 22 ;
23 [label=<gini = 0.0<br/>samples = 2<br/>value = [0, 0, 0, 2, 0, 0]>, fillcolor="#399de5"] ;
21 -> 23 ;
24 [label=<gini = 0.0<br/>samples = 3<br/>value = [0, 3, 0, 0, 0, 0]>, fillcolor="#9de539"] ;
20 -> 24 ;
25 [label=<fresh thyme &le; 0.5<br/>gini = 0.006<br/>samples = 313<br/>value = [0, 0, 0, 0, 312, 1]>, fillcolor="#813ae5"] ;
11 -> 25 ;
26 [label=<gini = 0.0<br/>samples = 312<br/>value = [0, 0, 0, 0, 312, 0]>, fillcolor="#8139e5"] ;
25 -> 26 ;
27 [label=<gini = 0.0<br/>samples = 1<br/>value = [0, 0, 0, 0, 0, 1]>, fillcolor="#e5399d"] ;
25 -> 27 ;
28 [label=<butter lettuce &le; 0.5<br/>gini = 0.022<br/>samples = 266<br/>value = [0, 1, 263, 0, 0, 2]>, fillcolor="#3be582"] ;
10 -> 28 ;
29 [label=<okra &le; 0.5<br/>gini = 0.015<br/>samples = 265<br/>value = [0, 0, 263, 0, 0, 2]>, fillcolor="#3be582"] ;
28 -> 29 ;
30 [label=<collard greens &le; 0.5<br/>gini = 0.008<br/>samples = 264<br/>value = [0, 0, 263, 0, 0, 1]>, fillcolor="#3ae581"] ;
29 -> 30 ;
31 [label=<gini = 0.0<br/>samples = 263<br/>value = [0, 0, 263, 0, 0, 0]>, fillcolor="#39e581"] ;
30 -> 31 ;
32 [label=<gini = 0.0<br/>samples = 1<br/>value = [0, 0, 0, 0, 0, 1]>, fillcolor="#e5399d"] ;
30 -> 32 ;
33 [label=<gini = 0.0<br/>samples = 1<br/>value = [0, 0, 0, 0, 0, 1]>, fillcolor="#e5399d"] ;
29 -> 33 ;
34 [label=<gini = 0.0<br/>samples = 1<br/>value = [0, 1, 0, 0, 0, 0]>, fillcolor="#9de539"] ;
28 -> 34 ;
35 [label=<dressing &le; 0.5<br/>gini = 0.103<br/>samples = 451<br/>value = [0, 4, 1, 9, 427, 10]>, fillcolor="#8844e6"] ;
9 -> 35 ;
36 [label=<basil &le; 0.5<br/>gini = 0.087<br/>samples = 446<br/>value = [0, 4, 1, 9, 426, 6]>, fillcolor="#8742e6"] ;
35 -> 36 ;
37 [label=<fresh basil leaves &le; 0.5<br/>gini = 0.075<br/>samples = 443<br/>value = [0, 4, 1, 6, 426, 6]>, fillcolor="#8641e6"] ;
36 -> 37 ;
38 [label=<mango chutney &le; 0.5<br/>gini = 0.062<br/>samples = 439<br/>value = [0, 3, 1, 4, 425, 6]>, fillcolor="#853fe6"] ;
37 -> 38 ;
39 [label=<navel oranges &le; 0.5<br/>gini = 0.058<br/>samples = 438<br/>value = [0, 3, 0, 4, 425, 6]>, fillcolor="#853fe6"] ;
38 -> 39 ;
40 [label=<gini = 0.054<br/>samples = 437<br/>value = [0, 2, 0, 4, 425, 6]>, fillcolor="#853fe6"] ;
39 -> 40 ;
41 [label=<gini = 0.0<br/>samples = 1<br/>value = [0, 1, 0, 0, 0, 0]>, fillcolor="#9de539"] ;
39 -> 41 ;
42 [label=<gini = 0.0<br/>samples = 1<br/>value = [0, 0, 1, 0, 0, 0]>, fillcolor="#39e581"] ;
38 -> 42 ;
43 [label=<cucumber &le; 0.5<br/>gini = 0.625<br/>samples = 4<br/>value = [0, 1, 0, 2, 1, 0]>, fillcolor="#bddef6"] ;
37 -> 43 ;
44 [label=<pepper &le; 0.5<br/>gini = 0.444<br/>samples = 3<br/>value = [0, 0, 0, 2, 1, 0]>, fillcolor="#9ccef2"] ;
43 -> 44 ;
45 [label=<gini = 0.0<br/>samples = 2<br/>value = [0, 0, 0, 2, 0, 0]>, fillcolor="#399de5"] ;
44 -> 45 ;
46 [label=<gini = 0.0<br/>samples = 1<br/>value = [0, 0, 0, 0, 1, 0]>, fillcolor="#8139e5"] ;
44 -> 46 ;
47 [label=<gini = 0.0<br/>samples = 1<br/>value = [0, 1, 0, 0, 0, 0]>, fillcolor="#9de539"] ;
43 -> 47 ;
48 [label=<gini = 0.0<br/>samples = 3<br/>value = [0, 0, 0, 3, 0, 0]>, fillcolor="#399de5"] ;
36 -> 48 ;
49 [label=<slaw &le; 0.5<br/>gini = 0.32<br/>samples = 5<br/>value = [0, 0, 0, 0, 1, 4]>, fillcolor="#ec6ab6"] ;
35 -> 49 ;
50 [label=<gini = 0.0<br/>samples = 4<br/>value = [0, 0, 0, 0, 0, 4]>, fillcolor="#e5399d"] ;
49 -> 50 ;
51 [label=<gini = 0.0<br/>samples = 1<br/>value = [0, 0, 0, 0, 1, 0]>, fillcolor="#8139e5"] ;
49 -> 51 ;
52 [label=<curry &le; 0.5<br/>gini = 0.063<br/>samples = 311<br/>value = [0, 301, 7, 0, 2, 1]>, fillcolor="#a0e640"] ;
8 -> 52 ;
53 [label=<asafoetida &le; 0.5<br/>gini = 0.045<br/>samples = 307<br/>value = [0, 300, 4, 0, 2, 1]>, fillcolor="#9fe63e"] ;
52 -> 53 ;
54 [label=<collard greens &le; 0.5<br/>gini = 0.032<br/>samples = 305<br/>value = [0, 300, 2, 0, 2, 1]>, fillcolor="#9fe53c"] ;
53 -> 54 ;
55 [label=<chicken stock cubes &le; 0.5<br/>gini = 0.026<br/>samples = 304<br/>value = [0, 300, 2, 0, 2, 0]>, fillcolor="#9ee53c"] ;
54 -> 55 ;
56 [label=<chana dal &le; 0.5<br/>gini = 0.02<br/>samples = 303<br/>value = [0, 300, 2, 0, 1, 0]>, fillcolor="#9ee53b"] ;
55 -> 56 ;
57 [label=<fresh cilantro &le; 0.5<br/>gini = 0.013<br/>samples = 302<br/>value = [0, 300, 1, 0, 1, 0]>, fillcolor="#9ee53a"] ;
56 -> 57 ;
58 [label=<gini = 0.007<br/>samples = 300<br/>value = [0, 299, 1, 0, 0, 0]>, fillcolor="#9de53a"] ;
57 -> 58 ;
59 [label=<gini = 0.5<br/>samples = 2<br/>value = [0, 1, 0, 0, 1, 0]>, fillcolor="#ffffff"] ;
57 -> 59 ;
60 [label=<gini = 0.0<br/>samples = 1<br/>value = [0, 0, 1, 0, 0, 0]>, fillcolor="#39e581"] ;
56 -> 60 ;
61 [label=<gini = 0.0<br/>samples = 1<br/>value = [0, 0, 0, 0, 1, 0]>, fillcolor="#8139e5"] ;
55 -> 61 ;
62 [label=<gini = 0.0<br/>samples = 1<br/>value = [0, 0, 0, 0, 0, 1]>, fillcolor="#e5399d"] ;
54 -> 62 ;
63 [label=<gini = 0.0<br/>samples = 2<br/>value = [0, 0, 2, 0, 0, 0]>, fillcolor="#39e581"] ;
53 -> 63 ;
64 [label=<carrots &le; 0.5<br/>gini = 0.375<br/>samples = 4<br/>value = [0, 1, 3, 0, 0, 0]>, fillcolor="#7beeab"] ;
52 -> 64 ;
65 [label=<gini = 0.0<br/>samples = 3<br/>value = [0, 0, 3, 0, 0, 0]>, fillcolor="#39e581"] ;
64 -> 65 ;
66 [label=<gini = 0.0<br/>samples = 1<br/>value = [0, 1, 0, 0, 0, 0]>, fillcolor="#9de539"] ;
64 -> 66 ;
67 [label=<asparagus &le; 0.5<br/>gini = 0.048<br/>samples = 536<br/>value = [0, 1, 2, 7, 523, 3]>, fillcolor="#843ee6"] ;
7 -> 67 ;
68 [label=<curry &le; 0.5<br/>gini = 0.041<br/>samples = 534<br/>value = [0, 1, 1, 6, 523, 3]>, fillcolor="#843de6"] ;
67 -> 68 ;
69 [label=<grits &le; 0.5<br/>gini = 0.037<br/>samples = 533<br/>value = [0, 1, 0, 6, 523, 3]>, fillcolor="#833de5"] ;
68 -> 69 ;
70 [label=<bread slices &le; 0.5<br/>gini = 0.033<br/>samples = 532<br/>value = [0, 1, 0, 6, 523, 2]>, fillcolor="#833ce5"] ;
69 -> 70 ;
71 [label=<yellow peppers &le; 0.5<br/>gini = 0.03<br/>samples = 531<br/>value = [0, 1, 0, 6, 523, 1]>, fillcolor="#833ce5"] ;
70 -> 71 ;
72 [label=<refrigerated pizza dough &le; 0.5<br/>gini = 0.026<br/>samples = 530<br/>value = [0, 1, 0, 6, 523, 0]>, fillcolor="#833ce5"] ;
71 -> 72 ;
73 [label=<veggie &le; 0.5<br/>gini = 0.022<br/>samples = 529<br/>value = [0, 1, 0, 5, 523, 0]>, fillcolor="#823be5"] ;
72 -> 73 ;
74 [label=<gini = 0.019<br/>samples = 528<br/>value = [0, 1, 0, 4, 523, 0]>, fillcolor="#823be5"] ;
73 -> 74 ;
75 [label=<gini = 0.0<br/>samples = 1<br/>value = [0, 0, 0, 1, 0, 0]>, fillcolor="#399de5"] ;
73 -> 75 ;
76 [label=<gini = 0.0<br/>samples = 1<br/>value = [0, 0, 0, 1, 0, 0]>, fillcolor="#399de5"] ;
72 -> 76 ;
77 [label=<gini = 0.0<br/>samples = 1<br/>value = [0, 0, 0, 0, 0, 1]>, fillcolor="#e5399d"] ;
71 -> 77 ;
78 [label=<gini = 0.0<br/>samples = 1<br/>value = [0, 0, 0, 0, 0, 1]>, fillcolor="#e5399d"] ;
70 -> 78 ;
79 [label=<gini = 0.0<br/>samples = 1<br/>value = [0, 0, 0, 0, 0, 1]>, fillcolor="#e5399d"] ;
69 -> 79 ;
80 [label=<gini = 0.0<br/>samples = 1<br/>value = [0, 0, 1, 0, 0, 0]>, fillcolor="#39e581"] ;
68 -> 80 ;
81 [label=<cherry tomatoes &le; 0.5<br/>gini = 0.5<br/>samples = 2<br/>value = [0, 0, 1, 1, 0, 0]>, fillcolor="#ffffff"] ;
67 -> 81 ;
82 [label=<gini = 0.0<br/>samples = 1<br/>value = [0, 0, 0, 1, 0, 0]>, fillcolor="#399de5"] ;
81 -> 82 ;
83 [label=<gini = 0.0<br/>samples = 1<br/>value = [0, 0, 1, 0, 0, 0]>, fillcolor="#39e581"] ;
81 -> 83 ;
84 [label=<unflavored gelatin &le; 0.5<br/>gini = 0.131<br/>samples = 640<br/>value = [0, 1, 9, 22, 12, 596]>, fillcolor="#e747a4"] ;
6 -> 84 ;
85 [label=<mascarpone &le; 0.5<br/>gini = 0.12<br/>samples = 636<br/>value = [0, 1, 9, 18, 12, 596]>, fillcolor="#e746a3"] ;
84 -> 85 ;
86 [label=<asafoetida &le; 0.5<br/>gini = 0.11<br/>samples = 631<br/>value = [0, 1, 9, 14, 12, 595]>, fillcolor="#e745a3"] ;
85 -> 86 ;
87 [label=<paneer cheese &le; 0.5<br/>gini = 0.101<br/>samples = 628<br/>value = [0, 1, 6, 14, 12, 595]>, fillcolor="#e644a2"] ;
86 -> 87 ;
88 [label=<margarine &le; 0.5<br/>gini = 0.093<br/>samples = 625<br/>value = [0, 1, 3, 14, 12, 595]>, fillcolor="#e643a2"] ;
87 -> 88 ;
89 [label=<coconut milk &le; 0.5<br/>gini = 0.084<br/>samples = 621<br/>value = [0, 1, 3, 11, 12, 594]>, fillcolor="#e642a1"] ;
88 -> 89 ;
90 [label=<muffin mix &le; 0.5<br/>gini = 0.078<br/>samples = 619<br/>value = [0, 1, 1, 11, 12, 594]>, fillcolor="#e641a1"] ;
89 -> 90 ;
91 [label=<sun-dried tomatoes in oil &le; 0.5<br/>gini = 0.073<br/>samples = 617<br/>value = [0, 1, 1, 9, 12, 594]>, fillcolor="#e641a1"] ;
90 -> 91 ;
92 [label=<gini = 0.067<br/>samples = 615<br/>value = [0, 1, 1, 7, 12, 594]>, fillcolor="#e640a0"] ;
91 -> 92 ;
93 [label=<gini = 0.0<br/>samples = 2<br/>value = [0, 0, 0, 2, 0, 0]>, fillcolor="#399de5"] ;
91 -> 93 ;
94 [label=<gini = 0.0<br/>samples = 2<br/>value = [0, 0, 0, 2, 0, 0]>, fillcolor="#399de5"] ;
90 -> 94 ;
95 [label=<gini = 0.0<br/>samples = 2<br/>value = [0, 0, 2, 0, 0, 0]>, fillcolor="#39e581"] ;
89 -> 95 ;
96 [label=<white sugar &le; 0.5<br/>gini = 0.375<br/>samples = 4<br/>value = [0, 0, 0, 3, 0, 1]>, fillcolor="#7bbeee"] ;
88 -> 96 ;
97 [label=<gini = 0.0<br/>samples = 1<br/>value = [0, 0, 0, 0, 0, 1]>, fillcolor="#e5399d"] ;
96 -> 97 ;
98 [label=<gini = 0.0<br/>samples = 3<br/>value = [0, 0, 0, 3, 0, 0]>, fillcolor="#399de5"] ;
96 -> 98 ;
99 [label=<gini = 0.0<br/>samples = 3<br/>value = [0, 0, 3, 0, 0, 0]>, fillcolor="#39e581"] ;
87 -> 99 ;
100 [label=<gini = 0.0<br/>samples = 3<br/>value = [0, 0, 3, 0, 0, 0]>, fillcolor="#39e581"] ;
86 -> 100 ;
101 [label=<red food coloring &le; 0.5<br/>gini = 0.32<br/>samples = 5<br/>value = [0, 0, 0, 4, 0, 1]>, fillcolor="#6ab6ec"] ;
85 -> 101 ;
102 [label=<gini = 0.0<br/>samples = 4<br/>value = [0, 0, 0, 4, 0, 0]>, fillcolor="#399de5"] ;
101 -> 102 ;
103 [label=<gini = 0.0<br/>samples = 1<br/>value = [0, 0, 0, 0, 0, 1]>, fillcolor="#e5399d"] ;
101 -> 103 ;
104 [label=<gini = 0.0<br/>samples = 4<br/>value = [0, 0, 0, 4, 0, 0]>, fillcolor="#399de5"] ;
84 -> 104 ;
105 [label=<ancho chile pepper &le; 0.5<br/>gini = 0.234<br/>samples = 616<br/>value = [0, 5, 535, 0, 66, 10]>, fillcolor="#56e994"] ;
5 -> 105 ;
106 [label=<tomatillos &le; 0.5<br/>gini = 0.198<br/>samples = 600<br/>value = [0, 5, 535, 0, 50, 10]>, fillcolor="#50e890"] ;
105 -> 106 ;
107 [label=<corn tortillas &le; 0.5<br/>gini = 0.168<br/>samples = 588<br/>value = [0, 5, 535, 0, 38, 10]>, fillcolor="#4ce88d"] ;
106 -> 107 ;
108 [label=<dried oregano &le; 0.5<br/>gini = 0.146<br/>samples = 579<br/>value = [0, 5, 534, 0, 30, 10]>, fillcolor="#49e78b"] ;
107 -> 108 ;
109 [label=<allspice berries &le; 0.5<br/>gini = 0.13<br/>samples = 572<br/>value = [0, 5, 533, 0, 24, 10]>, fillcolor="#47e78a"] ;
108 -> 109 ;
110 [label=<black-eyed peas &le; 0.5<br/>gini = 0.115<br/>samples = 567<br/>value = [0, 5, 533, 0, 19, 10]>, fillcolor="#45e789"] ;
109 -> 110 ;
111 [label=<avocado &le; 0.5<br/>gini = 0.103<br/>samples = 562<br/>value = [0, 5, 532, 0, 19, 6]>, fillcolor="#44e688"] ;
110 -> 111 ;
112 [label=<duck &le; 0.5<br/>gini = 0.09<br/>samples = 557<br/>value = [0, 5, 531, 0, 15, 6]>, fillcolor="#42e687"] ;
111 -> 112 ;
113 [label=<yellow corn meal &le; 0.5<br/>gini = 0.084<br/>samples = 555<br/>value = [0, 3, 531, 0, 15, 6]>, fillcolor="#42e687"] ;
112 -> 113 ;
114 [label=<gini = 0.077<br/>samples = 553<br/>value = [0, 3, 531, 0, 15, 4]>, fillcolor="#41e686"] ;
113 -> 114 ;
115 [label=<gini = 0.0<br/>samples = 2<br/>value = [0, 0, 0, 0, 0, 2]>, fillcolor="#e5399d"] ;
113 -> 115 ;
116 [label=<gini = 0.0<br/>samples = 2<br/>value = [0, 2, 0, 0, 0, 0]>, fillcolor="#9de539"] ;
112 -> 116 ;
117 [label=<coriander seeds &le; 0.5<br/>gini = 0.32<br/>samples = 5<br/>value = [0, 0, 1, 0, 4, 0]>, fillcolor="#a06aec"] ;
111 -> 117 ;
118 [label=<gini = 0.0<br/>samples = 4<br/>value = [0, 0, 0, 0, 4, 0]>, fillcolor="#8139e5"] ;
117 -> 118 ;
119 [label=<gini = 0.0<br/>samples = 1<br/>value = [0, 0, 1, 0, 0, 0]>, fillcolor="#39e581"] ;
117 -> 119 ;
120 [label=<tamarind concentrate &le; 0.5<br/>gini = 0.32<br/>samples = 5<br/>value = [0, 0, 1, 0, 0, 4]>, fillcolor="#ec6ab6"] ;
110 -> 120 ;
121 [label=<gini = 0.0<br/>samples = 4<br/>value = [0, 0, 0, 0, 0, 4]>, fillcolor="#e5399d"] ;
120 -> 121 ;
122 [label=<gini = 0.0<br/>samples = 1<br/>value = [0, 0, 1, 0, 0, 0]>, fillcolor="#39e581"] ;
120 -> 122 ;
123 [label=<gini = 0.0<br/>samples = 5<br/>value = [0, 0, 0, 0, 5, 0]>, fillcolor="#8139e5"] ;
109 -> 123 ;
124 [label=<fennel seeds &le; 0.5<br/>gini = 0.245<br/>samples = 7<br/>value = [0, 0, 1, 0, 6, 0]>, fillcolor="#965ae9"] ;
108 -> 124 ;
125 [label=<gini = 0.0<br/>samples = 6<br/>value = [0, 0, 0, 0, 6, 0]>, fillcolor="#8139e5"] ;
124 -> 125 ;
126 [label=<gini = 0.0<br/>samples = 1<br/>value = [0, 0, 1, 0, 0, 0]>, fillcolor="#39e581"] ;
124 -> 126 ;
127 [label=<cinnamon sticks &le; 0.5<br/>gini = 0.198<br/>samples = 9<br/>value = [0, 0, 1, 0, 8, 0]>, fillcolor="#9152e8"] ;
107 -> 127 ;
128 [label=<gini = 0.0<br/>samples = 8<br/>value = [0, 0, 0, 0, 8, 0]>, fillcolor="#8139e5"] ;
127 -> 128 ;
129 [label=<gini = 0.0<br/>samples = 1<br/>value = [0, 0, 1, 0, 0, 0]>, fillcolor="#39e581"] ;
127 -> 129 ;
130 [label=<gini = 0.0<br/>samples = 12<br/>value = [0, 0, 0, 0, 12, 0]>, fillcolor="#8139e5"] ;
106 -> 130 ;
131 [label=<gini = 0.0<br/>samples = 16<br/>value = [0, 0, 0, 0, 16, 0]>, fillcolor="#8139e5"] ;
105 -> 131 ;
132 [label=<grits &le; 0.5<br/>gini = 0.2<br/>samples = 793<br/>value = [0, 2, 0, 706, 17, 68]>, fillcolor="#51a9e8"] ;
4 -> 132 ;
133 [label=<quickcooking grits &le; 0.5<br/>gini = 0.179<br/>samples = 782<br/>value = [0, 2, 0, 706, 17, 57]>, fillcolor="#4ea7e8"] ;
132 -> 133 ;
134 [label=<lime &le; 0.5<br/>gini = 0.167<br/>samples = 776<br/>value = [0, 2, 0, 706, 17, 51]>, fillcolor="#4ca6e8"] ;
133 -> 134 ;
135 [label=<all-purpose flour &le; 0.5<br/>gini = 0.157<br/>samples = 771<br/>value = [0, 2, 0, 706, 12, 51]>, fillcolor="#4ba6e7"] ;
134 -> 135 ;
136 [label=<crawfish &le; 0.5<br/>gini = 0.114<br/>samples = 671<br/>value = [0, 2, 0, 631, 12, 26]>, fillcolor="#45a3e7"] ;
135 -> 136 ;
137 [label=<salsa &le; 0.5<br/>gini = 0.106<br/>samples = 668<br/>value = [0, 2, 0, 631, 12, 23]>, fillcolor="#44a3e6"] ;
136 -> 137 ;
138 [label=<mustard &le; 0.5<br/>gini = 0.101<br/>samples = 666<br/>value = [0, 2, 0, 631, 10, 23]>, fillcolor="#44a2e6"] ;
137 -> 138 ;
139 [label=<red potato &le; 0.5<br/>gini = 0.096<br/>samples = 664<br/>value = [0, 2, 0, 631, 10, 21]>, fillcolor="#43a2e6"] ;
138 -> 139 ;
140 [label=<catfish fillets &le; 0.5<br/>gini = 0.09<br/>samples = 662<br/>value = [0, 2, 0, 631, 10, 19]>, fillcolor="#43a2e6"] ;
139 -> 140 ;
141 [label=<shredded swiss cheese &le; 0.5<br/>gini = 0.085<br/>samples = 660<br/>value = [0, 2, 0, 631, 10, 17]>, fillcolor="#42a1e6"] ;
140 -> 141 ;
142 [label=<gini = 0.08<br/>samples = 658<br/>value = [0, 2, 0, 631, 10, 15]>, fillcolor="#41a1e6"] ;
141 -> 142 ;
143 [label=<gini = 0.0<br/>samples = 2<br/>value = [0, 0, 0, 0, 0, 2]>, fillcolor="#e5399d"] ;
141 -> 143 ;
144 [label=<gini = 0.0<br/>samples = 2<br/>value = [0, 0, 0, 0, 0, 2]>, fillcolor="#e5399d"] ;
140 -> 144 ;
145 [label=<gini = 0.0<br/>samples = 2<br/>value = [0, 0, 0, 0, 0, 2]>, fillcolor="#e5399d"] ;
139 -> 145 ;
146 [label=<gini = 0.0<br/>samples = 2<br/>value = [0, 0, 0, 0, 0, 2]>, fillcolor="#e5399d"] ;
138 -> 146 ;
147 [label=<gini = 0.0<br/>samples = 2<br/>value = [0, 0, 0, 0, 2, 0]>, fillcolor="#8139e5"] ;
137 -> 147 ;
148 [label=<gini = 0.0<br/>samples = 3<br/>value = [0, 0, 0, 0, 0, 3]>, fillcolor="#e5399d"] ;
136 -> 148 ;
149 [label=<dry mustard &le; 0.5<br/>gini = 0.375<br/>samples = 100<br/>value = [0, 0, 0, 75, 0, 25]>, fillcolor="#7bbeee"] ;
135 -> 149 ;
150 [label=<tomatoes &le; 0.5<br/>gini = 0.351<br/>samples = 97<br/>value = [0, 0, 0, 75, 0, 22]>, fillcolor="#73baed"] ;
149 -> 150 ;
151 [label=<seasoned bread crumbs &le; 0.5<br/>gini = 0.309<br/>samples = 89<br/>value = [0, 0, 0, 72, 0, 17]>, fillcolor="#68b4eb"] ;
150 -> 151 ;
152 [label=<sugar &le; 0.5<br/>gini = 0.285<br/>samples = 87<br/>value = [0, 0, 0, 72, 0, 15]>, fillcolor="#62b1ea"] ;
151 -> 152 ;
153 [label=<old bay seasoning &le; 0.5<br/>gini = 0.259<br/>samples = 85<br/>value = [0, 0, 0, 72, 0, 13]>, fillcolor="#5dafea"] ;
152 -> 153 ;
154 [label=<elbow macaroni &le; 0.5<br/>gini = 0.23<br/>samples = 83<br/>value = [0, 0, 0, 72, 0, 11]>, fillcolor="#57ace9"] ;
153 -> 154 ;
155 [label=<gini = 0.198<br/>samples = 81<br/>value = [0, 0, 0, 72, 0, 9]>, fillcolor="#52a9e8"] ;
154 -> 155 ;
156 [label=<gini = 0.0<br/>samples = 2<br/>value = [0, 0, 0, 0, 0, 2]>, fillcolor="#e5399d"] ;
154 -> 156 ;
157 [label=<gini = 0.0<br/>samples = 2<br/>value = [0, 0, 0, 0, 0, 2]>, fillcolor="#e5399d"] ;
153 -> 157 ;
158 [label=<gini = 0.0<br/>samples = 2<br/>value = [0, 0, 0, 0, 0, 2]>, fillcolor="#e5399d"] ;
152 -> 158 ;
159 [label=<gini = 0.0<br/>samples = 2<br/>value = [0, 0, 0, 0, 0, 2]>, fillcolor="#e5399d"] ;
151 -> 159 ;
160 [label=<garlic &le; 0.5<br/>gini = 0.469<br/>samples = 8<br/>value = [0, 0, 0, 3, 0, 5]>, fillcolor="#f5b0d8"] ;
150 -> 160 ;
161 [label=<gini = 0.0<br/>samples = 4<br/>value = [0, 0, 0, 0, 0, 4]>, fillcolor="#e5399d"] ;
160 -> 161 ;
162 [label=<cajun seasoning &le; 0.5<br/>gini = 0.375<br/>samples = 4<br/>value = [0, 0, 0, 3, 0, 1]>, fillcolor="#7bbeee"] ;
160 -> 162 ;
163 [label=<gini = 0.0<br/>samples = 3<br/>value = [0, 0, 0, 3, 0, 0]>, fillcolor="#399de5"] ;
162 -> 163 ;
164 [label=<gini = 0.0<br/>samples = 1<br/>value = [0, 0, 0, 0, 0, 1]>, fillcolor="#e5399d"] ;
162 -> 164 ;
165 [label=<gini = 0.0<br/>samples = 3<br/>value = [0, 0, 0, 0, 0, 3]>, fillcolor="#e5399d"] ;
149 -> 165 ;
166 [label=<gini = 0.0<br/>samples = 5<br/>value = [0, 0, 0, 0, 5, 0]>, fillcolor="#8139e5"] ;
134 -> 166 ;
167 [label=<gini = 0.0<br/>samples = 6<br/>value = [0, 0, 0, 0, 0, 6]>, fillcolor="#e5399d"] ;
133 -> 167 ;
168 [label=<gini = 0.0<br/>samples = 11<br/>value = [0, 0, 0, 0, 0, 11]>, fillcolor="#e5399d"] ;
132 -> 168 ;
169 [label=<jalapeno chilies &le; 0.5<br/>gini = 0.287<br/>samples = 1531<br/>value = [0, 7, 35, 1284, 115, 90]>, fillcolor="#5caeea"] ;
3 -> 169 ;
170 [label=<lime &le; 0.5<br/>gini = 0.248<br/>samples = 1484<br/>value = [0, 7, 30, 1281, 84, 82]>, fillcolor="#56abe9"] ;
169 -> 170 ;
171 [label=<fresh lime juice &le; 0.5<br/>gini = 0.232<br/>samples = 1467<br/>value = [0, 7, 30, 1281, 67, 82]>, fillcolor="#54aae8"] ;
170 -> 171 ;
172 [label=<collard greens &le; 0.5<br/>gini = 0.212<br/>samples = 1443<br/>value = [0, 7, 30, 1277, 49, 80]>, fillcolor="#51a9e8"] ;
171 -> 172 ;
173 [label=<cumin seed &le; 0.5<br/>gini = 0.198<br/>samples = 1429<br/>value = [0, 7, 30, 1277, 49, 66]>, fillcolor="#4fa8e8"] ;
172 -> 173 ;
174 [label=<garam masala &le; 0.5<br/>gini = 0.187<br/>samples = 1419<br/>value = [0, 7, 22, 1277, 47, 66]>, fillcolor="#4ea7e8"] ;
173 -> 174 ;
175 [label=<cilantro &le; 0.5<br/>gini = 0.177<br/>samples = 1411<br/>value = [0, 7, 14, 1277, 47, 66]>, fillcolor="#4da7e8"] ;
174 -> 175 ;
176 [label=<buttermilk &le; 0.5<br/>gini = 0.167<br/>samples = 1402<br/>value = [0, 7, 12, 1277, 40, 66]>, fillcolor="#4ca6e7"] ;
175 -> 176 ;
177 [label=<grits &le; 0.5<br/>gini = 0.158<br/>samples = 1393<br/>value = [0, 7, 12, 1276, 40, 58]>, fillcolor="#4aa6e7"] ;
176 -> 177 ;
178 [label=<black-eyed peas &le; 0.5<br/>gini = 0.15<br/>samples = 1385<br/>value = [0, 7, 12, 1275, 40, 51]>, fillcolor="#49a5e7"] ;
177 -> 178 ;
179 [label=<lime juice &le; 0.5<br/>gini = 0.143<br/>samples = 1378<br/>value = [0, 7, 12, 1274, 40, 45]>, fillcolor="#48a5e7"] ;
178 -> 179 ;
180 [label=<gini = 0.137<br/>samples = 1373<br/>value = [0, 7, 12, 1274, 35, 45]>, fillcolor="#48a4e7"] ;
179 -> 180 ;
181 [label=<gini = 0.0<br/>samples = 5<br/>value = [0, 0, 0, 0, 5, 0]>, fillcolor="#8139e5"] ;
179 -> 181 ;
182 [label=<no-salt-added diced tomatoes &le; 0.5<br/>gini = 0.245<br/>samples = 7<br/>value = [0, 0, 0, 1, 0, 6]>, fillcolor="#e95aad"] ;
178 -> 182 ;
183 [label=<gini = 0.0<br/>samples = 6<br/>value = [0, 0, 0, 0, 0, 6]>, fillcolor="#e5399d"] ;
182 -> 183 ;
184 [label=<gini = 0.0<br/>samples = 1<br/>value = [0, 0, 0, 1, 0, 0]>, fillcolor="#399de5"] ;
182 -> 184 ;
185 [label=<parmigiano reggiano cheese &le; 0.5<br/>gini = 0.219<br/>samples = 8<br/>value = [0, 0, 0, 1, 0, 7]>, fillcolor="#e955ab"] ;
177 -> 185 ;
186 [label=<gini = 0.0<br/>samples = 7<br/>value = [0, 0, 0, 0, 0, 7]>, fillcolor="#e5399d"] ;
185 -> 186 ;
187 [label=<gini = 0.0<br/>samples = 1<br/>value = [0, 0, 0, 1, 0, 0]>, fillcolor="#399de5"] ;
185 -> 187 ;
188 [label=<italian seasoning &le; 0.5<br/>gini = 0.198<br/>samples = 9<br/>value = [0, 0, 0, 1, 0, 8]>, fillcolor="#e852a9"] ;
176 -> 188 ;
189 [label=<gini = 0.0<br/>samples = 8<br/>value = [0, 0, 0, 0, 0, 8]>, fillcolor="#e5399d"] ;
188 -> 189 ;
190 [label=<gini = 0.0<br/>samples = 1<br/>value = [0, 0, 0, 1, 0, 0]>, fillcolor="#399de5"] ;
188 -> 190 ;
191 [label=<fenugreek leaves &le; 0.5<br/>gini = 0.346<br/>samples = 9<br/>value = [0, 0, 2, 0, 7, 0]>, fillcolor="#a572ec"] ;
175 -> 191 ;
192 [label=<curry &le; 0.5<br/>gini = 0.219<br/>samples = 8<br/>value = [0, 0, 1, 0, 7, 0]>, fillcolor="#9355e9"] ;
191 -> 192 ;
193 [label=<gini = 0.0<br/>samples = 7<br/>value = [0, 0, 0, 0, 7, 0]>, fillcolor="#8139e5"] ;
192 -> 193 ;
194 [label=<gini = 0.0<br/>samples = 1<br/>value = [0, 0, 1, 0, 0, 0]>, fillcolor="#39e581"] ;
192 -> 194 ;
195 [label=<gini = 0.0<br/>samples = 1<br/>value = [0, 0, 1, 0, 0, 0]>, fillcolor="#39e581"] ;
191 -> 195 ;
196 [label=<gini = 0.0<br/>samples = 8<br/>value = [0, 0, 8, 0, 0, 0]>, fillcolor="#39e581"] ;
174 -> 196 ;
197 [label=<clove &le; 0.5<br/>gini = 0.32<br/>samples = 10<br/>value = [0, 0, 8, 0, 2, 0]>, fillcolor="#6aeca0"] ;
173 -> 197 ;
198 [label=<gini = 0.0<br/>samples = 8<br/>value = [0, 0, 8, 0, 0, 0]>, fillcolor="#39e581"] ;
197 -> 198 ;
199 [label=<gini = 0.0<br/>samples = 2<br/>value = [0, 0, 0, 0, 2, 0]>, fillcolor="#8139e5"] ;
197 -> 199 ;
200 [label=<gini = 0.0<br/>samples = 14<br/>value = [0, 0, 0, 0, 0, 14]>, fillcolor="#e5399d"] ;
172 -> 200 ;
201 [label=<chees fresh mozzarella &le; 0.5<br/>gini = 0.403<br/>samples = 24<br/>value = [0, 0, 0, 4, 18, 2]>, fillcolor="#a774ed"] ;
171 -> 201 ;
202 [label=<fresh tarragon &le; 0.5<br/>gini = 0.314<br/>samples = 22<br/>value = [0, 0, 0, 2, 18, 2]>, fillcolor="#9a61ea"] ;
201 -> 202 ;
203 [label=<frozen corn &le; 0.5<br/>gini = 0.185<br/>samples = 20<br/>value = [0, 0, 0, 1, 18, 1]>, fillcolor="#8e4ee8"] ;
202 -> 203 ;
204 [label=<dri leav rosemari &le; 0.5<br/>gini = 0.1<br/>samples = 19<br/>value = [0, 0, 0, 1, 18, 0]>, fillcolor="#8844e6"] ;
203 -> 204 ;
205 [label=<gini = 0.0<br/>samples = 18<br/>value = [0, 0, 0, 0, 18, 0]>, fillcolor="#8139e5"] ;
204 -> 205 ;
206 [label=<gini = 0.0<br/>samples = 1<br/>value = [0, 0, 0, 1, 0, 0]>, fillcolor="#399de5"] ;
204 -> 206 ;
207 [label=<gini = 0.0<br/>samples = 1<br/>value = [0, 0, 0, 0, 0, 1]>, fillcolor="#e5399d"] ;
203 -> 207 ;
208 [label=<salt &le; 0.5<br/>gini = 0.5<br/>samples = 2<br/>value = [0, 0, 0, 1, 0, 1]>, fillcolor="#ffffff"] ;
202 -> 208 ;
209 [label=<gini = 0.0<br/>samples = 1<br/>value = [0, 0, 0, 0, 0, 1]>, fillcolor="#e5399d"] ;
208 -> 209 ;
210 [label=<gini = 0.0<br/>samples = 1<br/>value = [0, 0, 0, 1, 0, 0]>, fillcolor="#399de5"] ;
208 -> 210 ;
211 [label=<gini = 0.0<br/>samples = 2<br/>value = [0, 0, 0, 2, 0, 0]>, fillcolor="#399de5"] ;
201 -> 211 ;
212 [label=<gini = 0.0<br/>samples = 17<br/>value = [0, 0, 0, 0, 17, 0]>, fillcolor="#8139e5"] ;
170 -> 212 ;
213 [label=<cumin seed &le; 0.5<br/>gini = 0.521<br/>samples = 47<br/>value = [0, 0, 5, 3, 31, 8]>, fillcolor="#b58af0"] ;
169 -> 213 ;
214 [label=<stone- cornmeal &le; 0.5<br/>gini = 0.472<br/>samples = 43<br/>value = [0, 0, 2, 3, 30, 8]>, fillcolor="#b083ef"] ;
213 -> 214 ;
215 [label=<mayonaise &le; 0.5<br/>gini = 0.435<br/>samples = 41<br/>value = [0, 0, 2, 3, 30, 6]>, fillcolor="#a977ed"] ;
214 -> 215 ;
216 [label=<chicken stock &le; 0.5<br/>gini = 0.389<br/>samples = 39<br/>value = [0, 0, 2, 3, 30, 4]>, fillcolor="#a16cec"] ;
215 -> 216 ;
217 [label=<dried lentils &le; 0.5<br/>gini = 0.329<br/>samples = 37<br/>value = [0, 0, 1, 3, 30, 3]>, fillcolor="#9b62ea"] ;
216 -> 217 ;
218 [label=<fat free less sodium chicken broth &le; 0.5<br/>gini = 0.292<br/>samples = 36<br/>value = [0, 0, 0, 3, 30, 3]>, fillcolor="#985dea"] ;
217 -> 218 ;
219 [label=<tumeric &le; 0.5<br/>gini = 0.255<br/>samples = 35<br/>value = [0, 0, 0, 3, 30, 2]>, fillcolor="#9558e9"] ;
218 -> 219 ;
220 [label=<pecorino romano cheese &le; 0.5<br/>gini = 0.213<br/>samples = 34<br/>value = [0, 0, 0, 3, 30, 1]>, fillcolor="#9153e8"] ;
219 -> 220 ;
221 [label=<pasta sauce &le; 0.5<br/>gini = 0.169<br/>samples = 33<br/>value = [0, 0, 0, 2, 30, 1]>, fillcolor="#8d4ce8"] ;
220 -> 221 ;
222 [label=<pitted kalamata olives &le; 0.5<br/>gini = 0.119<br/>samples = 32<br/>value = [0, 0, 0, 1, 30, 1]>, fillcolor="#8946e7"] ;
221 -> 222 ;
223 [label=<gini = 0.062<br/>samples = 31<br/>value = [0, 0, 0, 0, 30, 1]>, fillcolor="#8540e6"] ;
222 -> 223 ;
224 [label=<gini = 0.0<br/>samples = 1<br/>value = [0, 0, 0, 1, 0, 0]>, fillcolor="#399de5"] ;
222 -> 224 ;
225 [label=<gini = 0.0<br/>samples = 1<br/>value = [0, 0, 0, 1, 0, 0]>, fillcolor="#399de5"] ;
221 -> 225 ;
226 [label=<gini = 0.0<br/>samples = 1<br/>value = [0, 0, 0, 1, 0, 0]>, fillcolor="#399de5"] ;
220 -> 226 ;
227 [label=<gini = 0.0<br/>samples = 1<br/>value = [0, 0, 0, 0, 0, 1]>, fillcolor="#e5399d"] ;
219 -> 227 ;
228 [label=<gini = 0.0<br/>samples = 1<br/>value = [0, 0, 0, 0, 0, 1]>, fillcolor="#e5399d"] ;
218 -> 228 ;
229 [label=<gini = 0.0<br/>samples = 1<br/>value = [0, 0, 1, 0, 0, 0]>, fillcolor="#39e581"] ;
217 -> 229 ;
230 [label=<lamb rib chops &le; 0.5<br/>gini = 0.5<br/>samples = 2<br/>value = [0, 0, 1, 0, 0, 1]>, fillcolor="#ffffff"] ;
216 -> 230 ;
231 [label=<gini = 0.0<br/>samples = 1<br/>value = [0, 0, 0, 0, 0, 1]>, fillcolor="#e5399d"] ;
230 -> 231 ;
232 [label=<gini = 0.0<br/>samples = 1<br/>value = [0, 0, 1, 0, 0, 0]>, fillcolor="#39e581"] ;
230 -> 232 ;
233 [label=<gini = 0.0<br/>samples = 2<br/>value = [0, 0, 0, 0, 0, 2]>, fillcolor="#e5399d"] ;
215 -> 233 ;
234 [label=<gini = 0.0<br/>samples = 2<br/>value = [0, 0, 0, 0, 0, 2]>, fillcolor="#e5399d"] ;
214 -> 234 ;
235 [label=<green onions &le; 0.5<br/>gini = 0.375<br/>samples = 4<br/>value = [0, 0, 3, 0, 1, 0]>, fillcolor="#7beeab"] ;
213 -> 235 ;
236 [label=<gini = 0.0<br/>samples = 3<br/>value = [0, 0, 3, 0, 0, 0]>, fillcolor="#39e581"] ;
235 -> 236 ;
237 [label=<gini = 0.0<br/>samples = 1<br/>value = [0, 0, 0, 0, 1, 0]>, fillcolor="#8139e5"] ;
235 -> 237 ;
238 [label=<avocado &le; 0.5<br/>gini = 0.466<br/>samples = 4367<br/>value = [0, 59, 228, 3092, 691, 297]>, fillcolor="#7ebfee"] ;
2 -> 238 ;
239 [label=<curry &le; 0.5<br/>gini = 0.442<br/>samples = 4226<br/>value = [0, 59, 228, 3082, 561, 296]>, fillcolor="#77bced"] ;
238 -> 239 ;
240 [label=<jalapeno chilies &le; 0.5<br/>gini = 0.419<br/>samples = 4131<br/>value = [0, 58, 141, 3080, 560, 292]>, fillcolor="#73baed"] ;
239 -> 240 ;
241 [label=<corn tortillas &le; 0.5<br/>gini = 0.392<br/>samples = 4002<br/>value = [0, 58, 134, 3071, 458, 281]>, fillcolor="#6db7ec"] ;
240 -> 241 ;
242 [label=<cilantro &le; 0.5<br/>gini = 0.376<br/>samples = 3940<br/>value = [0, 58, 134, 3071, 396, 281]>, fillcolor="#6ab5eb"] ;
241 -> 242 ;
243 [label=<cilantro fresh &le; 0.5<br/>gini = 0.355<br/>samples = 3866<br/>value = [0, 56, 112, 3069, 349, 280]>, fillcolor="#66b3eb"] ;
242 -> 243 ;
244 [label=<garam masala &le; 0.5<br/>gini = 0.336<br/>samples = 3790<br/>value = [0, 56, 102, 3060, 299, 273]>, fillcolor="#62b1ea"] ;
243 -> 244 ;
245 [label=<chili &le; 0.5<br/>gini = 0.325<br/>samples = 3756<br/>value = [0, 56, 69, 3059, 299, 273]>, fillcolor="#61b1ea"] ;
244 -> 245 ;
246 [label=<salsa &le; 0.5<br/>gini = 0.309<br/>samples = 3703<br/>value = [0, 56, 65, 3054, 260, 268]>, fillcolor="#5eb0ea"] ;
245 -> 246 ;
247 [label=<collard greens &le; 0.5<br/>gini = 0.298<br/>samples = 3669<br/>value = [0, 56, 65, 3053, 229, 266]>, fillcolor="#5dafea"] ;
246 -> 247 ;
248 [label=<grits &le; 0.5<br/>gini = 0.286<br/>samples = 3630<br/>value = [0, 56, 65, 3048, 229, 232]>, fillcolor="#5baee9"] ;
247 -> 248 ;
249 [label=<lime &le; 0.5<br/>gini = 0.278<br/>samples = 3607<br/>value = [0, 56, 65, 3048, 229, 209]>, fillcolor="#5aade9"] ;
248 -> 249 ;
250 [label=<gini = 0.268<br/>samples = 3579<br/>value = [0, 55, 62, 3047, 207, 208]>, fillcolor="#58ace9"] ;
249 -> 250 ;
251 [label=<gini = 0.367<br/>samples = 28<br/>value = [0, 1, 3, 1, 22, 1]>, fillcolor="#9f69eb"] ;
249 -> 251 ;
252 [label=<gini = 0.0<br/>samples = 23<br/>value = [0, 0, 0, 0, 0, 23]>, fillcolor="#e5399d"] ;
248 -> 252 ;
253 [label=<cannellini beans &le; 0.5<br/>gini = 0.224<br/>samples = 39<br/>value = [0, 0, 0, 5, 0, 34]>, fillcolor="#e956ab"] ;
247 -> 253 ;
254 [label=<red pepper &le; 0.5<br/>gini = 0.149<br/>samples = 37<br/>value = [0, 0, 0, 3, 0, 34]>, fillcolor="#e74aa6"] ;
253 -> 254 ;
255 [label=<gini = 0.0<br/>samples = 29<br/>value = [0, 0, 0, 0, 0, 29]>, fillcolor="#e5399d"] ;
254 -> 255 ;
256 [label=<gini = 0.469<br/>samples = 8<br/>value = [0, 0, 0, 3, 0, 5]>, fillcolor="#f5b0d8"] ;
254 -> 256 ;
257 [label=<gini = 0.0<br/>samples = 2<br/>value = [0, 0, 0, 2, 0, 0]>, fillcolor="#399de5"] ;
253 -> 257 ;
258 [label=<green lentil &le; 0.5<br/>gini = 0.164<br/>samples = 34<br/>value = [0, 0, 0, 1, 31, 2]>, fillcolor="#8d4ce7"] ;
246 -> 258 ;
259 [label=<2% reduced-fat milk &le; 0.5<br/>gini = 0.114<br/>samples = 33<br/>value = [0, 0, 0, 0, 31, 2]>, fillcolor="#8946e7"] ;
258 -> 259 ;
260 [label=<lemon zest &le; 0.5<br/>gini = 0.061<br/>samples = 32<br/>value = [0, 0, 0, 0, 31, 1]>, fillcolor="#853fe6"] ;
259 -> 260 ;
261 [label=<gini = 0.0<br/>samples = 31<br/>value = [0, 0, 0, 0, 31, 0]>, fillcolor="#8139e5"] ;
260 -> 261 ;
262 [label=<gini = 0.0<br/>samples = 1<br/>value = [0, 0, 0, 0, 0, 1]>, fillcolor="#e5399d"] ;
260 -> 262 ;
263 [label=<gini = 0.0<br/>samples = 1<br/>value = [0, 0, 0, 0, 0, 1]>, fillcolor="#e5399d"] ;
259 -> 263 ;
264 [label=<gini = 0.0<br/>samples = 1<br/>value = [0, 0, 0, 1, 0, 0]>, fillcolor="#399de5"] ;
258 -> 264 ;
265 [label=<mustard &le; 0.5<br/>gini = 0.435<br/>samples = 53<br/>value = [0, 0, 4, 5, 39, 5]>, fillcolor="#a673ed"] ;
245 -> 265 ;
266 [label=<ginger &le; 0.5<br/>gini = 0.374<br/>samples = 50<br/>value = [0, 0, 4, 5, 39, 2]>, fillcolor="#a069eb"] ;
265 -> 266 ;
267 [label=<tomato sauce &le; 0.5<br/>gini = 0.326<br/>samples = 48<br/>value = [0, 0, 2, 5, 39, 2]>, fillcolor="#9b62ea"] ;
266 -> 267 ;
268 [label=<paprika &le; 0.5<br/>gini = 0.279<br/>samples = 45<br/>value = [0, 0, 2, 3, 38, 2]>, fillcolor="#965ae9"] ;
267 -> 268 ;
269 [label=<gini = 0.219<br/>samples = 42<br/>value = [0, 0, 2, 1, 37, 2]>, fillcolor="#9152e8"] ;
268 -> 269 ;
270 [label=<gini = 0.444<br/>samples = 3<br/>value = [0, 0, 0, 2, 1, 0]>, fillcolor="#9ccef2"] ;
268 -> 270 ;
271 [label=<hot sauce &le; 0.5<br/>gini = 0.444<br/>samples = 3<br/>value = [0, 0, 0, 2, 1, 0]>, fillcolor="#9ccef2"] ;
267 -> 271 ;
272 [label=<gini = 0.0<br/>samples = 2<br/>value = [0, 0, 0, 2, 0, 0]>, fillcolor="#399de5"] ;
271 -> 272 ;
273 [label=<gini = 0.0<br/>samples = 1<br/>value = [0, 0, 0, 0, 1, 0]>, fillcolor="#8139e5"] ;
271 -> 273 ;
274 [label=<gini = 0.0<br/>samples = 2<br/>value = [0, 0, 2, 0, 0, 0]>, fillcolor="#39e581"] ;
266 -> 274 ;
275 [label=<gini = 0.0<br/>samples = 3<br/>value = [0, 0, 0, 0, 0, 3]>, fillcolor="#e5399d"] ;
265 -> 275 ;
276 [label=<jeera &le; 0.5<br/>gini = 0.057<br/>samples = 34<br/>value = [0, 0, 33, 1, 0, 0]>, fillcolor="#3fe685"] ;
244 -> 276 ;
277 [label=<gini = 0.0<br/>samples = 33<br/>value = [0, 0, 33, 0, 0, 0]>, fillcolor="#39e581"] ;
276 -> 277 ;
278 [label=<gini = 0.0<br/>samples = 1<br/>value = [0, 0, 0, 1, 0, 0]>, fillcolor="#399de5"] ;
276 -> 278 ;
279 [label=<cumin seed &le; 0.5<br/>gini = 0.527<br/>samples = 76<br/>value = [0, 0, 10, 9, 50, 7]>, fillcolor="#b387ef"] ;
243 -> 279 ;
280 [label=<Madras curry &le; 0.5<br/>gini = 0.497<br/>samples = 73<br/>value = [0, 0, 7, 9, 50, 7]>, fillcolor="#ae80ee"] ;
279 -> 280 ;
281 [label=<garam masala &le; 0.5<br/>gini = 0.46<br/>samples = 70<br/>value = [0, 0, 4, 9, 50, 7]>, fillcolor="#aa7aee"] ;
280 -> 281 ;
282 [label=<coriander &le; 0.5<br/>gini = 0.43<br/>samples = 68<br/>value = [0, 0, 2, 9, 50, 7]>, fillcolor="#a775ed"] ;
281 -> 282 ;
283 [label=<okra pods &le; 0.5<br/>gini = 0.396<br/>samples = 66<br/>value = [0, 0, 0, 9, 50, 7]>, fillcolor="#a471ec"] ;
282 -> 283 ;
284 [label=<fresh basil &le; 0.5<br/>gini = 0.364<br/>samples = 64<br/>value = [0, 0, 0, 9, 50, 5]>, fillcolor="#a16bec"] ;
283 -> 284 ;
285 [label=<gini = 0.33<br/>samples = 62<br/>value = [0, 0, 0, 7, 50, 5]>, fillcolor="#9c64eb"] ;
284 -> 285 ;
286 [label=<gini = 0.0<br/>samples = 2<br/>value = [0, 0, 0, 2, 0, 0]>, fillcolor="#399de5"] ;
284 -> 286 ;
287 [label=<gini = 0.0<br/>samples = 2<br/>value = [0, 0, 0, 0, 0, 2]>, fillcolor="#e5399d"] ;
283 -> 287 ;
288 [label=<gini = 0.0<br/>samples = 2<br/>value = [0, 0, 2, 0, 0, 0]>, fillcolor="#39e581"] ;
282 -> 288 ;
289 [label=<gini = 0.0<br/>samples = 2<br/>value = [0, 0, 2, 0, 0, 0]>, fillcolor="#39e581"] ;
281 -> 289 ;
290 [label=<gini = 0.0<br/>samples = 3<br/>value = [0, 0, 3, 0, 0, 0]>, fillcolor="#39e581"] ;
280 -> 290 ;
291 [label=<gini = 0.0<br/>samples = 3<br/>value = [0, 0, 3, 0, 0, 0]>, fillcolor="#39e581"] ;
279 -> 291 ;
292 [label=<fresh ginger &le; 0.5<br/>gini = 0.507<br/>samples = 74<br/>value = [0, 2, 22, 2, 47, 1]>, fillcolor="#c2a0f2"] ;
242 -> 292 ;
293 [label=<garam masala &le; 0.5<br/>gini = 0.423<br/>samples = 64<br/>value = [0, 2, 12, 2, 47, 1]>, fillcolor="#aa7aee"] ;
292 -> 293 ;
294 [label=<ginger &le; 0.5<br/>gini = 0.366<br/>samples = 60<br/>value = [0, 2, 8, 2, 47, 1]>, fillcolor="#a06aec"] ;
293 -> 294 ;
295 [label=<cauliflower &le; 0.5<br/>gini = 0.307<br/>samples = 57<br/>value = [0, 1, 6, 2, 47, 1]>, fillcolor="#9a60ea"] ;
294 -> 295 ;
296 [label=<cumin seed &le; 0.5<br/>gini = 0.262<br/>samples = 55<br/>value = [0, 1, 4, 2, 47, 1]>, fillcolor="#9558e9"] ;
295 -> 296 ;
297 [label=<instant rice &le; 0.5<br/>gini = 0.214<br/>samples = 52<br/>value = [0, 1, 2, 2, 46, 1]>, fillcolor="#9051e8"] ;
296 -> 297 ;
298 [label=<yardlong beans &le; 0.5<br/>gini = 0.183<br/>samples = 51<br/>value = [0, 1, 2, 2, 46, 0]>, fillcolor="#8e4de8"] ;
297 -> 298 ;
299 [label=<gini = 0.15<br/>samples = 50<br/>value = [0, 0, 2, 2, 46, 0]>, fillcolor="#8c49e7"] ;
298 -> 299 ;
300 [label=<gini = 0.0<br/>samples = 1<br/>value = [0, 1, 0, 0, 0, 0]>, fillcolor="#9de539"] ;
298 -> 300 ;
301 [label=<gini = 0.0<br/>samples = 1<br/>value = [0, 0, 0, 0, 0, 1]>, fillcolor="#e5399d"] ;
297 -> 301 ;
302 [label=<pepper &le; 0.5<br/>gini = 0.444<br/>samples = 3<br/>value = [0, 0, 2, 0, 1, 0]>, fillcolor="#9cf2c0"] ;
296 -> 302 ;
303 [label=<gini = 0.0<br/>samples = 2<br/>value = [0, 0, 2, 0, 0, 0]>, fillcolor="#39e581"] ;
302 -> 303 ;
304 [label=<gini = 0.0<br/>samples = 1<br/>value = [0, 0, 0, 0, 1, 0]>, fillcolor="#8139e5"] ;
302 -> 304 ;
305 [label=<gini = 0.0<br/>samples = 2<br/>value = [0, 0, 2, 0, 0, 0]>, fillcolor="#39e581"] ;
295 -> 305 ;
306 [label=<Sriracha &le; 0.5<br/>gini = 0.444<br/>samples = 3<br/>value = [0, 1, 2, 0, 0, 0]>, fillcolor="#9cf2c0"] ;
294 -> 306 ;
307 [label=<gini = 0.0<br/>samples = 2<br/>value = [0, 0, 2, 0, 0, 0]>, fillcolor="#39e581"] ;
306 -> 307 ;
308 [label=<gini = 0.0<br/>samples = 1<br/>value = [0, 1, 0, 0, 0, 0]>, fillcolor="#9de539"] ;
306 -> 308 ;
309 [label=<gini = 0.0<br/>samples = 4<br/>value = [0, 0, 4, 0, 0, 0]>, fillcolor="#39e581"] ;
293 -> 309 ;
310 [label=<gini = 0.0<br/>samples = 10<br/>value = [0, 0, 10, 0, 0, 0]>, fillcolor="#39e581"] ;
292 -> 310 ;
311 [label=<gini = 0.0<br/>samples = 62<br/>value = [0, 0, 0, 0, 62, 0]>, fillcolor="#8139e5"] ;
241 -> 311 ;
312 [label=<garam masala &le; 0.5<br/>gini = 0.36<br/>samples = 129<br/>value = [0, 0, 7, 9, 102, 11]>, fillcolor="#9e66eb"] ;
240 -> 312 ;
313 [label=<fresh ginger root &le; 0.5<br/>gini = 0.321<br/>samples = 125<br/>value = [0, 0, 3, 9, 102, 11]>, fillcolor="#9a61ea"] ;
312 -> 313 ;
314 [label=<fresh lemon juice &le; 0.5<br/>gini = 0.299<br/>samples = 123<br/>value = [0, 0, 1, 9, 102, 11]>, fillcolor="#995eea"] ;
313 -> 314 ;
315 [label=<celery ribs &le; 0.5<br/>gini = 0.269<br/>samples = 119<br/>value = [0, 0, 1, 9, 101, 8]>, fillcolor="#9659e9"] ;
314 -> 315 ;
316 [label=<frozen whole kernel corn &le; 0.5<br/>gini = 0.246<br/>samples = 117<br/>value = [0, 0, 1, 9, 101, 6]>, fillcolor="#9456e9"] ;
315 -> 316 ;
317 [label=<fresh basil &le; 0.5<br/>gini = 0.221<br/>samples = 115<br/>value = [0, 0, 1, 9, 101, 4]>, fillcolor="#9253e8"] ;
316 -> 317 ;
318 [label=<curry paste &le; 0.5<br/>gini = 0.196<br/>samples = 113<br/>value = [0, 0, 1, 7, 101, 4]>, fillcolor="#8f4fe8"] ;
317 -> 318 ;
319 [label=<asparagus &le; 0.5<br/>gini = 0.182<br/>samples = 112<br/>value = [0, 0, 0, 7, 101, 4]>, fillcolor="#8e4ee8"] ;
318 -> 319 ;
320 [label=<fresh orange juice &le; 0.5<br/>gini = 0.167<br/>samples = 111<br/>value = [0, 0, 0, 7, 101, 3]>, fillcolor="#8d4ce8"] ;
319 -> 320 ;
321 [label=<gini = 0.153<br/>samples = 110<br/>value = [0, 0, 0, 7, 101, 2]>, fillcolor="#8c4ae7"] ;
320 -> 321 ;
322 [label=<gini = 0.0<br/>samples = 1<br/>value = [0, 0, 0, 0, 0, 1]>, fillcolor="#e5399d"] ;
320 -> 322 ;
323 [label=<gini = 0.0<br/>samples = 1<br/>value = [0, 0, 0, 0, 0, 1]>, fillcolor="#e5399d"] ;
319 -> 323 ;
324 [label=<gini = 0.0<br/>samples = 1<br/>value = [0, 0, 1, 0, 0, 0]>, fillcolor="#39e581"] ;
318 -> 324 ;
325 [label=<gini = 0.0<br/>samples = 2<br/>value = [0, 0, 0, 2, 0, 0]>, fillcolor="#399de5"] ;
317 -> 325 ;
326 [label=<gini = 0.0<br/>samples = 2<br/>value = [0, 0, 0, 0, 0, 2]>, fillcolor="#e5399d"] ;
316 -> 326 ;
327 [label=<gini = 0.0<br/>samples = 2<br/>value = [0, 0, 0, 0, 0, 2]>, fillcolor="#e5399d"] ;
315 -> 327 ;
328 [label=<fresh orange juice &le; 0.5<br/>gini = 0.375<br/>samples = 4<br/>value = [0, 0, 0, 0, 1, 3]>, fillcolor="#ee7bbe"] ;
314 -> 328 ;
329 [label=<gini = 0.0<br/>samples = 3<br/>value = [0, 0, 0, 0, 0, 3]>, fillcolor="#e5399d"] ;
328 -> 329 ;
330 [label=<gini = 0.0<br/>samples = 1<br/>value = [0, 0, 0, 0, 1, 0]>, fillcolor="#8139e5"] ;
328 -> 330 ;
331 [label=<gini = 0.0<br/>samples = 2<br/>value = [0, 0, 2, 0, 0, 0]>, fillcolor="#39e581"] ;
313 -> 331 ;
332 [label=<gini = 0.0<br/>samples = 4<br/>value = [0, 0, 4, 0, 0, 0]>, fillcolor="#39e581"] ;
312 -> 332 ;
333 [label=<dried currants &le; 0.5<br/>gini = 0.159<br/>samples = 95<br/>value = [0, 1, 87, 2, 1, 4]>, fillcolor="#4ae78c"] ;
239 -> 333 ;
334 [label=<all-purpose flour &le; 0.5<br/>gini = 0.124<br/>samples = 93<br/>value = [0, 1, 87, 2, 1, 2]>, fillcolor="#46e789"] ;
333 -> 334 ;
335 [label=<rice noodles &le; 0.5<br/>gini = 0.067<br/>samples = 87<br/>value = [0, 1, 84, 2, 0, 0]>, fillcolor="#40e685"] ;
334 -> 335 ;
336 [label=<dried thyme &le; 0.5<br/>gini = 0.045<br/>samples = 86<br/>value = [0, 0, 84, 2, 0, 0]>, fillcolor="#3ee684"] ;
335 -> 336 ;
337 [label=<fettucine &le; 0.5<br/>gini = 0.023<br/>samples = 85<br/>value = [0, 0, 84, 1, 0, 0]>, fillcolor="#3be582"] ;
336 -> 337 ;
338 [label=<gini = 0.0<br/>samples = 84<br/>value = [0, 0, 84, 0, 0, 0]>, fillcolor="#39e581"] ;
337 -> 338 ;
339 [label=<gini = 0.0<br/>samples = 1<br/>value = [0, 0, 0, 1, 0, 0]>, fillcolor="#399de5"] ;
337 -> 339 ;
340 [label=<gini = 0.0<br/>samples = 1<br/>value = [0, 0, 0, 1, 0, 0]>, fillcolor="#399de5"] ;
336 -> 340 ;
341 [label=<gini = 0.0<br/>samples = 1<br/>value = [0, 1, 0, 0, 0, 0]>, fillcolor="#9de539"] ;
335 -> 341 ;
342 [label=<cilantro fresh &le; 0.5<br/>gini = 0.611<br/>samples = 6<br/>value = [0, 0, 3, 0, 1, 2]>, fillcolor="#cef8e0"] ;
334 -> 342 ;
343 [label=<crabmeat &le; 0.5<br/>gini = 0.48<br/>samples = 5<br/>value = [0, 0, 3, 0, 0, 2]>, fillcolor="#bdf6d5"] ;
342 -> 343 ;
344 [label=<catfish fillets &le; 0.5<br/>gini = 0.375<br/>samples = 4<br/>value = [0, 0, 3, 0, 0, 1]>, fillcolor="#7beeab"] ;
343 -> 344 ;
345 [label=<gini = 0.0<br/>samples = 3<br/>value = [0, 0, 3, 0, 0, 0]>, fillcolor="#39e581"] ;
344 -> 345 ;
346 [label=<gini = 0.0<br/>samples = 1<br/>value = [0, 0, 0, 0, 0, 1]>, fillcolor="#e5399d"] ;
344 -> 346 ;
347 [label=<gini = 0.0<br/>samples = 1<br/>value = [0, 0, 0, 0, 0, 1]>, fillcolor="#e5399d"] ;
343 -> 347 ;
348 [label=<gini = 0.0<br/>samples = 1<br/>value = [0, 0, 0, 0, 1, 0]>, fillcolor="#8139e5"] ;
342 -> 348 ;
349 [label=<gini = 0.0<br/>samples = 2<br/>value = [0, 0, 0, 0, 0, 2]>, fillcolor="#e5399d"] ;
333 -> 349 ;
350 [label=<pasta &le; 0.5<br/>gini = 0.145<br/>samples = 141<br/>value = [0, 0, 0, 10, 130, 1]>, fillcolor="#8c4ae7"] ;
238 -> 350 ;
351 [label=<crawfish &le; 0.5<br/>gini = 0.098<br/>samples = 136<br/>value = [0, 0, 0, 6, 129, 1]>, fillcolor="#8844e6"] ;
350 -> 351 ;
352 [label=<capers &le; 0.5<br/>gini = 0.085<br/>samples = 135<br/>value = [0, 0, 0, 6, 129, 0]>, fillcolor="#8742e6"] ;
351 -> 352 ;
353 [label=<sunflower seeds &le; 0.5<br/>gini = 0.072<br/>samples = 134<br/>value = [0, 0, 0, 5, 129, 0]>, fillcolor="#8641e6"] ;
352 -> 353 ;
354 [label=<white pepper &le; 0.5<br/>gini = 0.058<br/>samples = 133<br/>value = [0, 0, 0, 4, 129, 0]>, fillcolor="#853fe6"] ;
353 -> 354 ;
355 [label=<smoked turkey breast &le; 0.5<br/>gini = 0.044<br/>samples = 132<br/>value = [0, 0, 0, 3, 129, 0]>, fillcolor="#843ee6"] ;
354 -> 355 ;
356 [label=<spaghetti &le; 0.5<br/>gini = 0.03<br/>samples = 131<br/>value = [0, 0, 0, 2, 129, 0]>, fillcolor="#833ce5"] ;
355 -> 356 ;
357 [label=<baguette &le; 0.5<br/>gini = 0.015<br/>samples = 130<br/>value = [0, 0, 0, 1, 129, 0]>, fillcolor="#823be5"] ;
356 -> 357 ;
358 [label=<gini = 0.0<br/>samples = 128<br/>value = [0, 0, 0, 0, 128, 0]>, fillcolor="#8139e5"] ;
357 -> 358 ;
359 [label=<pepper &le; 0.5<br/>gini = 0.5<br/>samples = 2<br/>value = [0, 0, 0, 1, 1, 0]>, fillcolor="#ffffff"] ;
357 -> 359 ;
360 [label=<gini = 0.0<br/>samples = 1<br/>value = [0, 0, 0, 0, 1, 0]>, fillcolor="#8139e5"] ;
359 -> 360 ;
361 [label=<gini = 0.0<br/>samples = 1<br/>value = [0, 0, 0, 1, 0, 0]>, fillcolor="#399de5"] ;
359 -> 361 ;
362 [label=<gini = 0.0<br/>samples = 1<br/>value = [0, 0, 0, 1, 0, 0]>, fillcolor="#399de5"] ;
356 -> 362 ;
363 [label=<gini = 0.0<br/>samples = 1<br/>value = [0, 0, 0, 1, 0, 0]>, fillcolor="#399de5"] ;
355 -> 363 ;
364 [label=<gini = 0.0<br/>samples = 1<br/>value = [0, 0, 0, 1, 0, 0]>, fillcolor="#399de5"] ;
354 -> 364 ;
365 [label=<gini = 0.0<br/>samples = 1<br/>value = [0, 0, 0, 1, 0, 0]>, fillcolor="#399de5"] ;
353 -> 365 ;
366 [label=<gini = 0.0<br/>samples = 1<br/>value = [0, 0, 0, 1, 0, 0]>, fillcolor="#399de5"] ;
352 -> 366 ;
367 [label=<gini = 0.0<br/>samples = 1<br/>value = [0, 0, 0, 0, 0, 1]>, fillcolor="#e5399d"] ;
351 -> 367 ;
368 [label=<roma tomatoes &le; 0.5<br/>gini = 0.32<br/>samples = 5<br/>value = [0, 0, 0, 4, 1, 0]>, fillcolor="#6ab6ec"] ;
350 -> 368 ;
369 [label=<gini = 0.0<br/>samples = 4<br/>value = [0, 0, 0, 4, 0, 0]>, fillcolor="#399de5"] ;
368 -> 369 ;
370 [label=<gini = 0.0<br/>samples = 1<br/>value = [0, 0, 0, 0, 1, 0]>, fillcolor="#8139e5"] ;
368 -> 370 ;
371 [label=<garam masala &le; 0.5<br/>gini = 0.462<br/>samples = 2883<br/>value = [0, 5, 846, 33, 1937, 62]>, fillcolor="#bc95f1"] ;
1 -> 371 ;
372 [label=<turmeric &le; 0.5<br/>gini = 0.377<br/>samples = 2537<br/>value = [0, 5, 500, 33, 1937, 62]>, fillcolor="#a673ed"] ;
371 -> 372 ;
373 [label=<tumeric &le; 0.5<br/>gini = 0.316<br/>samples = 2372<br/>value = [0, 5, 343, 33, 1930, 61]>, fillcolor="#9c64eb"] ;
372 -> 373 ;
374 [label=<curry &le; 0.5<br/>gini = 0.267<br/>samples = 2272<br/>value = [0, 5, 245, 32, 1929, 61]>, fillcolor="#965be9"] ;
373 -> 374 ;
375 [label=<ginger &le; 0.5<br/>gini = 0.232<br/>samples = 2209<br/>value = [0, 5, 187, 32, 1926, 59]>, fillcolor="#9355e9"] ;
374 -> 375 ;
376 [label=<fresh ginger &le; 0.5<br/>gini = 0.207<br/>samples = 2164<br/>value = [0, 3, 154, 31, 1920, 56]>, fillcolor="#9051e8"] ;
375 -> 376 ;
377 [label=<peeled fresh ginger &le; 0.5<br/>gini = 0.188<br/>samples = 2136<br/>value = [0, 2, 128, 31, 1919, 56]>, fillcolor="#8f4ee8"] ;
376 -> 377 ;
378 [label=<fresh mint &le; 0.5<br/>gini = 0.179<br/>samples = 2123<br/>value = [0, 2, 115, 31, 1919, 56]>, fillcolor="#8e4de8"] ;
377 -> 378 ;
379 [label=<mint leaves &le; 0.5<br/>gini = 0.166<br/>samples = 2097<br/>value = [0, 2, 99, 29, 1911, 56]>, fillcolor="#8d4be7"] ;
378 -> 379 ;
380 [label=<black-eyed peas &le; 0.5<br/>gini = 0.157<br/>samples = 2083<br/>value = [0, 2, 87, 29, 1909, 56]>, fillcolor="#8c4ae7"] ;
379 -> 380 ;
381 [label=<cumin seed &le; 0.5<br/>gini = 0.15<br/>samples = 2070<br/>value = [0, 2, 87, 29, 1906, 46]>, fillcolor="#8b49e7"] ;
380 -> 381 ;
382 [label=<cardamom &le; 0.5<br/>gini = 0.143<br/>samples = 2061<br/>value = [0, 2, 79, 29, 1905, 46]>, fillcolor="#8b49e7"] ;
381 -> 382 ;
383 [label=<chutney &le; 0.5<br/>gini = 0.138<br/>samples = 2054<br/>value = [0, 2, 72, 29, 1905, 46]>, fillcolor="#8a48e7"] ;
382 -> 383 ;
384 [label=<gini = 0.134<br/>samples = 2049<br/>value = [0, 2, 67, 29, 1905, 46]>, fillcolor="#8a47e7"] ;
383 -> 384 ;
385 [label=<gini = 0.0<br/>samples = 5<br/>value = [0, 0, 5, 0, 0, 0]>, fillcolor="#39e581"] ;
383 -> 385 ;
386 [label=<gini = 0.0<br/>samples = 7<br/>value = [0, 0, 7, 0, 0, 0]>, fillcolor="#39e581"] ;
382 -> 386 ;
387 [label=<beef stock cubes &le; 0.5<br/>gini = 0.198<br/>samples = 9<br/>value = [0, 0, 8, 0, 1, 0]>, fillcolor="#52e891"] ;
381 -> 387 ;
388 [label=<gini = 0.0<br/>samples = 8<br/>value = [0, 0, 8, 0, 0, 0]>, fillcolor="#39e581"] ;
387 -> 388 ;
389 [label=<gini = 0.0<br/>samples = 1<br/>value = [0, 0, 0, 0, 1, 0]>, fillcolor="#8139e5"] ;
387 -> 389 ;
390 [label=<green onions &le; 0.5<br/>gini = 0.355<br/>samples = 13<br/>value = [0, 0, 0, 0, 3, 10]>, fillcolor="#ed74ba"] ;
380 -> 390 ;
391 [label=<tortilla chips &le; 0.5<br/>gini = 0.165<br/>samples = 11<br/>value = [0, 0, 0, 0, 1, 10]>, fillcolor="#e84da7"] ;
390 -> 391 ;
392 [label=<gini = 0.0<br/>samples = 10<br/>value = [0, 0, 0, 0, 0, 10]>, fillcolor="#e5399d"] ;
391 -> 392 ;
393 [label=<gini = 0.0<br/>samples = 1<br/>value = [0, 0, 0, 0, 1, 0]>, fillcolor="#8139e5"] ;
391 -> 393 ;
394 [label=<gini = 0.0<br/>samples = 2<br/>value = [0, 0, 0, 0, 2, 0]>, fillcolor="#8139e5"] ;
390 -> 394 ;
395 [label=<cilantro &le; 0.5<br/>gini = 0.245<br/>samples = 14<br/>value = [0, 0, 12, 0, 2, 0]>, fillcolor="#5ae996"] ;
379 -> 395 ;
396 [label=<gini = 0.0<br/>samples = 12<br/>value = [0, 0, 12, 0, 0, 0]>, fillcolor="#39e581"] ;
395 -> 396 ;
397 [label=<gini = 0.0<br/>samples = 2<br/>value = [0, 0, 0, 0, 2, 0]>, fillcolor="#8139e5"] ;
395 -> 397 ;
398 [label=<garlic cloves &le; 0.5<br/>gini = 0.521<br/>samples = 26<br/>value = [0, 0, 16, 2, 8, 0]>, fillcolor="#a7f3c7"] ;
378 -> 398 ;
399 [label=<dried oregano &le; 0.5<br/>gini = 0.349<br/>samples = 19<br/>value = [0, 0, 15, 1, 3, 0]>, fillcolor="#6aeca0"] ;
398 -> 399 ;
400 [label=<shallots &le; 0.5<br/>gini = 0.208<br/>samples = 17<br/>value = [0, 0, 15, 0, 2, 0]>, fillcolor="#53e892"] ;
399 -> 400 ;
401 [label=<beef broth &le; 0.5<br/>gini = 0.117<br/>samples = 16<br/>value = [0, 0, 15, 0, 1, 0]>, fillcolor="#46e789"] ;
400 -> 401 ;
402 [label=<gini = 0.0<br/>samples = 15<br/>value = [0, 0, 15, 0, 0, 0]>, fillcolor="#39e581"] ;
401 -> 402 ;
403 [label=<gini = 0.0<br/>samples = 1<br/>value = [0, 0, 0, 0, 1, 0]>, fillcolor="#8139e5"] ;
401 -> 403 ;
404 [label=<gini = 0.0<br/>samples = 1<br/>value = [0, 0, 0, 0, 1, 0]>, fillcolor="#8139e5"] ;
400 -> 404 ;
405 [label=<greek yogurt &le; 0.5<br/>gini = 0.5<br/>samples = 2<br/>value = [0, 0, 0, 1, 1, 0]>, fillcolor="#ffffff"] ;
399 -> 405 ;
406 [label=<gini = 0.0<br/>samples = 1<br/>value = [0, 0, 0, 1, 0, 0]>, fillcolor="#399de5"] ;
405 -> 406 ;
407 [label=<gini = 0.0<br/>samples = 1<br/>value = [0, 0, 0, 0, 1, 0]>, fillcolor="#8139e5"] ;
405 -> 407 ;
408 [label=<fresh lemon juice &le; 0.5<br/>gini = 0.449<br/>samples = 7<br/>value = [0, 0, 1, 1, 5, 0]>, fillcolor="#ab7bee"] ;
398 -> 408 ;
409 [label=<gini = 0.0<br/>samples = 5<br/>value = [0, 0, 0, 0, 5, 0]>, fillcolor="#8139e5"] ;
408 -> 409 ;
410 [label=<flat leaf parsley &le; 0.5<br/>gini = 0.5<br/>samples = 2<br/>value = [0, 0, 1, 1, 0, 0]>, fillcolor="#ffffff"] ;
408 -> 410 ;
411 [label=<gini = 0.0<br/>samples = 1<br/>value = [0, 0, 1, 0, 0, 0]>, fillcolor="#39e581"] ;
410 -> 411 ;
412 [label=<gini = 0.0<br/>samples = 1<br/>value = [0, 0, 0, 1, 0, 0]>, fillcolor="#399de5"] ;
410 -> 412 ;
413 [label=<gini = 0.0<br/>samples = 13<br/>value = [0, 0, 13, 0, 0, 0]>, fillcolor="#39e581"] ;
377 -> 413 ;
414 [label=<Shaoxing wine &le; 0.5<br/>gini = 0.135<br/>samples = 28<br/>value = [0, 1, 26, 0, 1, 0]>, fillcolor="#48e78a"] ;
376 -> 414 ;
415 [label=<paneer cheese &le; 0.5<br/>gini = 0.071<br/>samples = 27<br/>value = [0, 0, 26, 0, 1, 0]>, fillcolor="#41e686"] ;
414 -> 415 ;
416 [label=<gini = 0.0<br/>samples = 26<br/>value = [0, 0, 26, 0, 0, 0]>, fillcolor="#39e581"] ;
415 -> 416 ;
417 [label=<gini = 0.0<br/>samples = 1<br/>value = [0, 0, 0, 0, 1, 0]>, fillcolor="#8139e5"] ;
415 -> 417 ;
418 [label=<gini = 0.0<br/>samples = 1<br/>value = [0, 1, 0, 0, 0, 0]>, fillcolor="#9de539"] ;
414 -> 418 ;
419 [label=<worcestershire sauce &le; 0.5<br/>gini = 0.438<br/>samples = 45<br/>value = [0, 2, 33, 1, 6, 3]>, fillcolor="#76eda8"] ;
375 -> 419 ;
420 [label=<smoked paprika &le; 0.5<br/>gini = 0.365<br/>samples = 42<br/>value = [0, 2, 33, 1, 5, 1]>, fillcolor="#69eba0"] ;
419 -> 420 ;
421 [label=<dried oregano &le; 0.5<br/>gini = 0.31<br/>samples = 40<br/>value = [0, 2, 33, 1, 3, 1]>, fillcolor="#5eea99"] ;
420 -> 421 ;
422 [label=<pepper &le; 0.5<br/>gini = 0.24<br/>samples = 38<br/>value = [0, 2, 33, 0, 2, 1]>, fillcolor="#54e992"] ;
421 -> 422 ;
423 [label=<beef &le; 0.5<br/>gini = 0.112<br/>samples = 34<br/>value = [0, 1, 32, 0, 1, 0]>, fillcolor="#45e789"] ;
422 -> 423 ;
424 [label=<chili flakes &le; 0.5<br/>gini = 0.059<br/>samples = 33<br/>value = [0, 1, 32, 0, 0, 0]>, fillcolor="#3fe685"] ;
423 -> 424 ;
425 [label=<gini = 0.0<br/>samples = 32<br/>value = [0, 0, 32, 0, 0, 0]>, fillcolor="#39e581"] ;
424 -> 425 ;
426 [label=<gini = 0.0<br/>samples = 1<br/>value = [0, 1, 0, 0, 0, 0]>, fillcolor="#9de539"] ;
424 -> 426 ;
427 [label=<gini = 0.0<br/>samples = 1<br/>value = [0, 0, 0, 0, 1, 0]>, fillcolor="#8139e5"] ;
423 -> 427 ;
428 [label=<garlic &le; 0.5<br/>gini = 0.75<br/>samples = 4<br/>value = [0, 1, 1, 0, 1, 1]>, fillcolor="#ffffff"] ;
422 -> 428 ;
429 [label=<purple onion &le; 0.5<br/>gini = 0.5<br/>samples = 2<br/>value = [0, 0, 1, 0, 1, 0]>, fillcolor="#ffffff"] ;
428 -> 429 ;
430 [label=<gini = 0.0<br/>samples = 1<br/>value = [0, 0, 1, 0, 0, 0]>, fillcolor="#39e581"] ;
429 -> 430 ;
431 [label=<gini = 0.0<br/>samples = 1<br/>value = [0, 0, 0, 0, 1, 0]>, fillcolor="#8139e5"] ;
429 -> 431 ;
432 [label=<shiitake &le; 0.5<br/>gini = 0.5<br/>samples = 2<br/>value = [0, 1, 0, 0, 0, 1]>, fillcolor="#ffffff"] ;
428 -> 432 ;
433 [label=<gini = 0.0<br/>samples = 1<br/>value = [0, 0, 0, 0, 0, 1]>, fillcolor="#e5399d"] ;
432 -> 433 ;
434 [label=<gini = 0.0<br/>samples = 1<br/>value = [0, 1, 0, 0, 0, 0]>, fillcolor="#9de539"] ;
432 -> 434 ;
435 [label=<kidney beans &le; 0.5<br/>gini = 0.5<br/>samples = 2<br/>value = [0, 0, 0, 1, 1, 0]>, fillcolor="#ffffff"] ;
421 -> 435 ;
436 [label=<gini = 0.0<br/>samples = 1<br/>value = [0, 0, 0, 1, 0, 0]>, fillcolor="#399de5"] ;
435 -> 436 ;
437 [label=<gini = 0.0<br/>samples = 1<br/>value = [0, 0, 0, 0, 1, 0]>, fillcolor="#8139e5"] ;
435 -> 437 ;
438 [label=<gini = 0.0<br/>samples = 2<br/>value = [0, 0, 0, 0, 2, 0]>, fillcolor="#8139e5"] ;
420 -> 438 ;
439 [label=<brown sugar &le; 0.5<br/>gini = 0.444<br/>samples = 3<br/>value = [0, 0, 0, 0, 1, 2]>, fillcolor="#f29cce"] ;
419 -> 439 ;
440 [label=<gini = 0.0<br/>samples = 1<br/>value = [0, 0, 0, 0, 1, 0]>, fillcolor="#8139e5"] ;
439 -> 440 ;
441 [label=<gini = 0.0<br/>samples = 2<br/>value = [0, 0, 0, 0, 0, 2]>, fillcolor="#e5399d"] ;
439 -> 441 ;
442 [label=<corn tortillas &le; 0.5<br/>gini = 0.149<br/>samples = 63<br/>value = [0, 0, 58, 0, 3, 2]>, fillcolor="#49e78c"] ;
374 -> 442 ;
443 [label=<bread &le; 0.5<br/>gini = 0.095<br/>samples = 61<br/>value = [0, 0, 58, 0, 1, 2]>, fillcolor="#43e687"] ;
442 -> 443 ;
444 [label=<dry white wine &le; 0.5<br/>gini = 0.064<br/>samples = 60<br/>value = [0, 0, 58, 0, 0, 2]>, fillcolor="#40e685"] ;
443 -> 444 ;
445 [label=<chunky peanut butter &le; 0.5<br/>gini = 0.033<br/>samples = 59<br/>value = [0, 0, 58, 0, 0, 1]>, fillcolor="#3ce583"] ;
444 -> 445 ;
446 [label=<gini = 0.0<br/>samples = 58<br/>value = [0, 0, 58, 0, 0, 0]>, fillcolor="#39e581"] ;
445 -> 446 ;
447 [label=<gini = 0.0<br/>samples = 1<br/>value = [0, 0, 0, 0, 0, 1]>, fillcolor="#e5399d"] ;
445 -> 447 ;
448 [label=<gini = 0.0<br/>samples = 1<br/>value = [0, 0, 0, 0, 0, 1]>, fillcolor="#e5399d"] ;
444 -> 448 ;
449 [label=<gini = 0.0<br/>samples = 1<br/>value = [0, 0, 0, 0, 1, 0]>, fillcolor="#8139e5"] ;
443 -> 449 ;
450 [label=<gini = 0.0<br/>samples = 2<br/>value = [0, 0, 0, 0, 2, 0]>, fillcolor="#8139e5"] ;
442 -> 450 ;
451 [label=<lime slices &le; 0.5<br/>gini = 0.039<br/>samples = 100<br/>value = [0, 0, 98, 1, 1, 0]>, fillcolor="#3de684"] ;
373 -> 451 ;
452 [label=<boneless, skinless chicken breast &le; 0.5<br/>gini = 0.02<br/>samples = 99<br/>value = [0, 0, 98, 1, 0, 0]>, fillcolor="#3be582"] ;
451 -> 452 ;
453 [label=<gini = 0.0<br/>samples = 98<br/>value = [0, 0, 98, 0, 0, 0]>, fillcolor="#39e581"] ;
452 -> 453 ;
454 [label=<gini = 0.0<br/>samples = 1<br/>value = [0, 0, 0, 1, 0, 0]>, fillcolor="#399de5"] ;
452 -> 454 ;
455 [label=<gini = 0.0<br/>samples = 1<br/>value = [0, 0, 0, 0, 1, 0]>, fillcolor="#8139e5"] ;
451 -> 455 ;
456 [label=<long-grain rice &le; 0.5<br/>gini = 0.093<br/>samples = 165<br/>value = [0, 0, 157, 0, 7, 1]>, fillcolor="#43e687"] ;
372 -> 456 ;
457 [label=<mango chutney &le; 0.5<br/>gini = 0.06<br/>samples = 162<br/>value = [0, 0, 157, 0, 4, 1]>, fillcolor="#3fe685"] ;
456 -> 457 ;
458 [label=<tequila &le; 0.5<br/>gini = 0.048<br/>samples = 161<br/>value = [0, 0, 157, 0, 4, 0]>, fillcolor="#3ee684"] ;
457 -> 458 ;
459 [label=<radishes &le; 0.5<br/>gini = 0.037<br/>samples = 160<br/>value = [0, 0, 157, 0, 3, 0]>, fillcolor="#3de583"] ;
458 -> 459 ;
460 [label=<corn kernels &le; 0.5<br/>gini = 0.025<br/>samples = 159<br/>value = [0, 0, 157, 0, 2, 0]>, fillcolor="#3ce583"] ;
459 -> 460 ;
461 [label=<sour cream &le; 0.5<br/>gini = 0.013<br/>samples = 158<br/>value = [0, 0, 157, 0, 1, 0]>, fillcolor="#3ae582"] ;
460 -> 461 ;
462 [label=<gini = 0.0<br/>samples = 156<br/>value = [0, 0, 156, 0, 0, 0]>, fillcolor="#39e581"] ;
461 -> 462 ;
463 [label=<red lentils &le; 0.5<br/>gini = 0.5<br/>samples = 2<br/>value = [0, 0, 1, 0, 1, 0]>, fillcolor="#ffffff"] ;
461 -> 463 ;
464 [label=<gini = 0.0<br/>samples = 1<br/>value = [0, 0, 1, 0, 0, 0]>, fillcolor="#39e581"] ;
463 -> 464 ;
465 [label=<gini = 0.0<br/>samples = 1<br/>value = [0, 0, 0, 0, 1, 0]>, fillcolor="#8139e5"] ;
463 -> 465 ;
466 [label=<gini = 0.0<br/>samples = 1<br/>value = [0, 0, 0, 0, 1, 0]>, fillcolor="#8139e5"] ;
460 -> 466 ;
467 [label=<gini = 0.0<br/>samples = 1<br/>value = [0, 0, 0, 0, 1, 0]>, fillcolor="#8139e5"] ;
459 -> 467 ;
468 [label=<gini = 0.0<br/>samples = 1<br/>value = [0, 0, 0, 0, 1, 0]>, fillcolor="#8139e5"] ;
458 -> 468 ;
469 [label=<gini = 0.0<br/>samples = 1<br/>value = [0, 0, 0, 0, 0, 1]>, fillcolor="#e5399d"] ;
457 -> 469 ;
470 [label=<gini = 0.0<br/>samples = 3<br/>value = [0, 0, 0, 0, 3, 0]>, fillcolor="#8139e5"] ;
456 -> 470 ;
471 [label=<gini = 0.0<br/>samples = 346<br/>value = [0, 0, 346, 0, 0, 0]>, fillcolor="#39e581"] ;
371 -> 471 ;
472 [label=<cumin &le; 0.5<br/>gini = 0.128<br/>samples = 1461<br/>value = [0, 1363, 20, 15, 42, 21]>, fillcolor="#a4e747"] ;
0 -> 472 [labeldistance=2.5, labelangle=-45, headlabel="False"] ;
473 [label=<garam masala &le; 0.5<br/>gini = 0.095<br/>samples = 1430<br/>value = [0, 1360, 14, 15, 22, 19]>, fillcolor="#a2e643"] ;
472 -> 473 ;
474 [label=<bourbon whiskey &le; 0.5<br/>gini = 0.087<br/>samples = 1424<br/>value = [0, 1360, 8, 15, 22, 19]>, fillcolor="#a1e642"] ;
473 -> 474 ;
475 [label=<salsa &le; 0.5<br/>gini = 0.082<br/>samples = 1420<br/>value = [0, 1360, 8, 15, 22, 15]>, fillcolor="#a1e641"] ;
474 -> 475 ;
476 [label=<fresh rosemary &le; 0.5<br/>gini = 0.078<br/>samples = 1417<br/>value = [0, 1360, 8, 15, 19, 15]>, fillcolor="#a1e641"] ;
475 -> 476 ;
477 [label=<paneer &le; 0.5<br/>gini = 0.075<br/>samples = 1414<br/>value = [0, 1360, 8, 13, 19, 14]>, fillcolor="#a1e641"] ;
476 -> 477 ;
478 [label=<parmesan cheese &le; 0.5<br/>gini = 0.072<br/>samples = 1412<br/>value = [0, 1360, 6, 13, 19, 14]>, fillcolor="#a1e640"] ;
477 -> 478 ;
479 [label=<dried porcini mushrooms &le; 0.5<br/>gini = 0.069<br/>samples = 1410<br/>value = [0, 1360, 6, 11, 19, 14]>, fillcolor="#a1e640"] ;
478 -> 479 ;
480 [label=<fresh parsley leaves &le; 0.5<br/>gini = 0.067<br/>samples = 1408<br/>value = [0, 1360, 6, 9, 19, 14]>, fillcolor="#a0e640"] ;
479 -> 480 ;
481 [label=<oregano &le; 0.5<br/>gini = 0.064<br/>samples = 1406<br/>value = [0, 1360, 6, 7, 19, 14]>, fillcolor="#a0e640"] ;
480 -> 481 ;
482 [label=<lime juice &le; 0.5<br/>gini = 0.061<br/>samples = 1404<br/>value = [0, 1360, 6, 7, 17, 14]>, fillcolor="#a0e63f"] ;
481 -> 482 ;
483 [label=<whole grain mustard &le; 0.5<br/>gini = 0.056<br/>samples = 1395<br/>value = [0, 1355, 6, 7, 13, 14]>, fillcolor="#a0e63f"] ;
482 -> 483 ;
484 [label=<chipotles in adobo &le; 0.5<br/>gini = 0.054<br/>samples = 1393<br/>value = [0, 1355, 6, 6, 13, 13]>, fillcolor="#a0e63e"] ;
483 -> 484 ;
485 [label=<avocado &le; 0.5<br/>gini = 0.051<br/>samples = 1391<br/>value = [0, 1355, 6, 6, 12, 12]>, fillcolor="#a0e63e"] ;
484 -> 485 ;
486 [label=<gini = 0.047<br/>samples = 1385<br/>value = [0, 1352, 6, 6, 9, 12]>, fillcolor="#9fe63e"] ;
485 -> 486 ;
487 [label=<gini = 0.5<br/>samples = 6<br/>value = [0, 3, 0, 0, 3, 0]>, fillcolor="#ffffff"] ;
485 -> 487 ;
488 [label=<nutritional yeast &le; 0.5<br/>gini = 0.5<br/>samples = 2<br/>value = [0, 0, 0, 0, 1, 1]>, fillcolor="#ffffff"] ;
484 -> 488 ;
489 [label=<gini = 0.0<br/>samples = 1<br/>value = [0, 0, 0, 0, 0, 1]>, fillcolor="#e5399d"] ;
488 -> 489 ;
490 [label=<gini = 0.0<br/>samples = 1<br/>value = [0, 0, 0, 0, 1, 0]>, fillcolor="#8139e5"] ;
488 -> 490 ;
491 [label=<black pepper &le; 0.5<br/>gini = 0.5<br/>samples = 2<br/>value = [0, 0, 0, 1, 0, 1]>, fillcolor="#ffffff"] ;
483 -> 491 ;
492 [label=<gini = 0.0<br/>samples = 1<br/>value = [0, 0, 0, 1, 0, 0]>, fillcolor="#399de5"] ;
491 -> 492 ;
493 [label=<gini = 0.0<br/>samples = 1<br/>value = [0, 0, 0, 0, 0, 1]>, fillcolor="#e5399d"] ;
491 -> 493 ;
494 [label=<ginger &le; 0.5<br/>gini = 0.494<br/>samples = 9<br/>value = [0, 5, 0, 0, 4, 0]>, fillcolor="#ebfad7"] ;
482 -> 494 ;
495 [label=<Sriracha &le; 0.5<br/>gini = 0.444<br/>samples = 6<br/>value = [0, 2, 0, 0, 4, 0]>, fillcolor="#c09cf2"] ;
494 -> 495 ;
496 [label=<gini = 0.0<br/>samples = 4<br/>value = [0, 0, 0, 0, 4, 0]>, fillcolor="#8139e5"] ;
495 -> 496 ;
497 [label=<gini = 0.0<br/>samples = 2<br/>value = [0, 2, 0, 0, 0, 0]>, fillcolor="#9de539"] ;
495 -> 497 ;
498 [label=<gini = 0.0<br/>samples = 3<br/>value = [0, 3, 0, 0, 0, 0]>, fillcolor="#9de539"] ;
494 -> 498 ;
499 [label=<gini = 0.0<br/>samples = 2<br/>value = [0, 0, 0, 0, 2, 0]>, fillcolor="#8139e5"] ;
481 -> 499 ;
500 [label=<gini = 0.0<br/>samples = 2<br/>value = [0, 0, 0, 2, 0, 0]>, fillcolor="#399de5"] ;
480 -> 500 ;
501 [label=<gini = 0.0<br/>samples = 2<br/>value = [0, 0, 0, 2, 0, 0]>, fillcolor="#399de5"] ;
479 -> 501 ;
502 [label=<gini = 0.0<br/>samples = 2<br/>value = [0, 0, 0, 2, 0, 0]>, fillcolor="#399de5"] ;
478 -> 502 ;
503 [label=<gini = 0.0<br/>samples = 2<br/>value = [0, 0, 2, 0, 0, 0]>, fillcolor="#39e581"] ;
477 -> 503 ;
504 [label=<olive oil &le; 0.5<br/>gini = 0.444<br/>samples = 3<br/>value = [0, 0, 0, 2, 0, 1]>, fillcolor="#9ccef2"] ;
476 -> 504 ;
505 [label=<gini = 0.0<br/>samples = 1<br/>value = [0, 0, 0, 0, 0, 1]>, fillcolor="#e5399d"] ;
504 -> 505 ;
506 [label=<gini = 0.0<br/>samples = 2<br/>value = [0, 0, 0, 2, 0, 0]>, fillcolor="#399de5"] ;
504 -> 506 ;
507 [label=<gini = 0.0<br/>samples = 3<br/>value = [0, 0, 0, 0, 3, 0]>, fillcolor="#8139e5"] ;
475 -> 507 ;
508 [label=<gini = 0.0<br/>samples = 4<br/>value = [0, 0, 0, 0, 0, 4]>, fillcolor="#e5399d"] ;
474 -> 508 ;
509 [label=<gini = 0.0<br/>samples = 6<br/>value = [0, 0, 6, 0, 0, 0]>, fillcolor="#39e581"] ;
473 -> 509 ;
510 [label=<lime juice &le; 0.5<br/>gini = 0.533<br/>samples = 31<br/>value = [0, 3, 6, 0, 20, 2]>, fillcolor="#b890f0"] ;
472 -> 510 ;
511 [label=<brown sugar &le; 0.5<br/>gini = 0.675<br/>samples = 20<br/>value = [0, 3, 6, 0, 9, 2]>, fillcolor="#e4d5f9"] ;
510 -> 511 ;
512 [label=<sesame oil &le; 0.5<br/>gini = 0.611<br/>samples = 18<br/>value = [0, 3, 6, 0, 9, 0]>, fillcolor="#e0cef8"] ;
511 -> 512 ;
513 [label=<flank steak &le; 0.5<br/>gini = 0.539<br/>samples = 16<br/>value = [0, 1, 6, 0, 9, 0]>, fillcolor="#d9c4f7"] ;
512 -> 513 ;
514 [label=<lime &le; 0.5<br/>gini = 0.569<br/>samples = 12<br/>value = [0, 1, 6, 0, 5, 0]>, fillcolor="#e3fbed"] ;
513 -> 514 ;
515 [label=<chili &le; 0.5<br/>gini = 0.54<br/>samples = 10<br/>value = [0, 1, 6, 0, 3, 0]>, fillcolor="#aaf4c9"] ;
514 -> 515 ;
516 [label=<onions &le; 0.5<br/>gini = 0.56<br/>samples = 5<br/>value = [0, 1, 1, 0, 3, 0]>, fillcolor="#c09cf2"] ;
515 -> 516 ;
517 [label=<pepper &le; 0.5<br/>gini = 0.5<br/>samples = 2<br/>value = [0, 1, 1, 0, 0, 0]>, fillcolor="#ffffff"] ;
516 -> 517 ;
518 [label=<gini = 0.0<br/>samples = 1<br/>value = [0, 0, 1, 0, 0, 0]>, fillcolor="#39e581"] ;
517 -> 518 ;
519 [label=<gini = 0.0<br/>samples = 1<br/>value = [0, 1, 0, 0, 0, 0]>, fillcolor="#9de539"] ;
517 -> 519 ;
520 [label=<gini = 0.0<br/>samples = 3<br/>value = [0, 0, 0, 0, 3, 0]>, fillcolor="#8139e5"] ;
516 -> 520 ;
521 [label=<gini = 0.0<br/>samples = 5<br/>value = [0, 0, 5, 0, 0, 0]>, fillcolor="#39e581"] ;
515 -> 521 ;
522 [label=<gini = 0.0<br/>samples = 2<br/>value = [0, 0, 0, 0, 2, 0]>, fillcolor="#8139e5"] ;
514 -> 522 ;
523 [label=<gini = 0.0<br/>samples = 4<br/>value = [0, 0, 0, 0, 4, 0]>, fillcolor="#8139e5"] ;
513 -> 523 ;
524 [label=<gini = 0.0<br/>samples = 2<br/>value = [0, 2, 0, 0, 0, 0]>, fillcolor="#9de539"] ;
512 -> 524 ;
525 [label=<gini = 0.0<br/>samples = 2<br/>value = [0, 0, 0, 0, 0, 2]>, fillcolor="#e5399d"] ;
511 -> 525 ;
526 [label=<gini = 0.0<br/>samples = 11<br/>value = [0, 0, 0, 0, 11, 0]>, fillcolor="#8139e5"] ;
510 -> 526 ;
}
